{"biases": [[[-0.4704906172972434], [1.4227881213135618], [0.5314426688615452], [1.6556819973328207], [-0.7773761114666152], [0.9004538955702096], [0.8400165159896806], [-2.519685322445221], [-0.5633633368218776], [1.0684192761776705], [0.42126139645851035], [-0.9542581349885885], [-0.14384873905625342], [1.4353184163379673], [-0.4354617454056476], [1.8539002767291848], [1.179725867112997], [-0.007266549971001525], [0.2862149573026639], [0.04811521112569955], [-1.5378022791489354], [0.09810853528997926], [0.29421148730616553], [-0.15582524177423593], [-0.38373648507650804], [-0.27624729697763606], [1.0610474883270622], [0.12451130473876161], [-1.556042376230279], [-0.27287090338519915]], [[-4.129915280294499], [-2.4981066585150136], [-5.396559100706983], [-4.631296865726097], [-3.9045465157017953], [-5.353624194800565], [-3.7588052913366816], [-3.3023849945912263], [-1.8240675093153016], [-1.6290853806850891]]], "sizes": [1024, 30, 10], "weights": [[[-5.989291904675489e-06, 2.704506022495875e-05, 9.926634591521595e-06, -2.811480397652498e-06, 7.369284394496544e-06, -1.1247601023647088e-05, -3.3584042183525882e-06, 0.0020896083473337865, 0.019056030840304054, 0.07481899501656393, 0.18253555547431918, 0.15441514449265503, 0.07397349347038952, -0.04632097148688275, 0.0021547547557380763, -0.06525908489644218, 0.00733131245104488, 0.053981824326177805, 0.04382394881271089, 0.08235538865365423, 0.0462696828299753, 0.049779023011189555, 0.12172947840599413, 0.1194403067115149, 0.06091531340847181, 0.07414976567074523, 0.05485853519572426, 0.04823525214940861, 0.03858372531479085, 0.02217339254883507, 0.00733402857106137, -3.2392711692616655e-05, 5.815459920426449e-06, 6.7568312224544495e-06, -4.690486470370462e-05, 2.894953054643703e-06, -1.128067782961233e-06, -3.182587417650093e-05, -0.005386958388022157, 0.013451327888578907, 0.0819785037352879, 0.1409643450502878, 0.1533028336665879, 0.16209348419426284, 0.0765152225196987, 0.055804314951196574, 0.05041388142977195, 0.1012236717716306, 0.061499402806444635, 0.042900175776669554, 0.10150828070929124, 0.1088875326216601, 0.11897177215467597, 0.1403544042336786, 0.16494348474981507, 0.16248189207522742, 0.1517983739958519, 0.1312120524633276, 0.08726482452793427, 0.046711016966006144, 0.05157399560889132, 0.038160918875897724, 0.024729291438315634, -3.394659543966301e-05, -2.1427060230841185e-05, -1.8583839585720074e-06, 2.195324394995471e-05, -2.0535198276163794e-05, -1.8634963791239655e-06, -0.005701170217626309, 0.0022450215032124975, 0.03558300163819619, 0.051531344921911214, 0.017237060919064434, 0.18339203876386578, 0.07988450815641926, 0.10168163167242485, 0.07552485692930605, 0.051103437645358914, 0.10942210982817827, 0.08994422401252555, 0.030057205692468683, 0.04402736824023857, 0.055478889223256084, 0.12762331036619987, 0.05145906945408625, 0.177860520987537, 0.22551169944539778, 0.2005408148201974, 0.16354032445275396, 0.14800488067366302, 0.1058897847498993, 0.04858559843322181, 0.04743721708672499, 0.043606244510823906, 0.020236453545367353, 1.2120452626451232e-05, -3.4828089614444974e-05, -1.4229053436954305e-05, 3.3327980441366604e-05, -2.079725449926206e-05, -0.0043618946273615185, 0.03266192249424634, -0.05145837684432049, 0.10623406009417671, 0.1347144424196929, 0.18367012965579269, 0.14022231187894213, 0.07748328441107379, 0.07002460350587358, 0.04333472054453075, 0.07250417908596868, 0.06696245449277315, 0.06230704358029839, 0.04760114157615381, 0.027374366208749494, 0.046037090186620534, 0.1306376284637174, 0.13663259153068963, 0.14849314828785165, 0.07242459024114435, 0.142747837613015, 0.12752325164053238, 0.09181526992472466, 0.03985558193151162, 0.035824217551962356, 0.026406163811976777, 0.002546284325132522, -2.1830393722660727e-06, 1.2617411085314623e-05, 1.367301686695394e-05, -2.102143977500209e-06, 2.6741020498024678e-05, 0.0205504206137455, -0.005459764454404923, -0.010450309132392671, 0.1794101100255003, 0.13102813247751213, 0.14944265836763637, 0.11114707552655248, 0.06608299323162507, 0.06883353503074739, 0.0545690191161283, 0.08806090545355734, 0.1195894531772769, 0.13212395450005715, 0.10331072529772106, 0.05042491578259862, 0.05628331331644718, 0.07647557636551883, 0.04641133293772662, 0.11838404005823211, 0.04278083290359011, 0.0486419956891885, 0.10920232668782898, 0.05489012745218936, 0.029923839150068625, 0.030473530789001713, 0.009589392633538132, 0.008169654177276444, -1.2081465902166083e-05, 2.0284334681635267e-06, -3.660295208798157e-05, -8.36564774926966e-06, -0.00866868691161626, -0.0030789078527302532, -0.0620745728273232, 0.021175377533805124, 0.12375698695550434, 0.14840543055007174, 0.15239790867550168, 0.060361440951199996, 0.0933370664135579, 0.10436617360848865, 0.09638983882705116, 0.11860285078490855, 0.18642348294391045, 0.1868117427794242, 0.0874962658828074, 0.06590447847936431, -0.015350806086385699, -0.0038390149123919814, 0.032743377891382465, -0.036375671043577494, -0.02953587253592067, -0.0774889123268206, 0.018479396165673997, 0.038246326007903876, 0.01894904659942325, 0.019795327276186384, 0.006300984135485414, -2.653179342768375e-05, 7.311942268947719e-06, -1.2999601274975642e-05, -3.7970770842069595e-05, -1.0384753392623847e-06, -0.008044264817910804, 0.047218055002926126, -0.017716726468798, 0.027709676565823835, 0.023317498910032736, 0.028571932333847007, 0.07430448915792186, 0.06256171545590601, 0.15202844229633256, 0.20087591183860118, 0.19519672464804422, 0.1817768122658308, 0.14091082079688058, 0.11163504898336606, 0.11682664188375019, 0.06485839407219822, -0.0037967576469849222, -0.05576583223074659, -0.08338635256500247, -0.08953911743698521, -0.09888525347786817, -0.0265086207640285, 0.03677848187900812, 0.003881781973029924, 0.006825339266076422, 0.007929915345802993, 0.00820009170580254, -8.650031380184503e-07, -1.0422880995382936e-06, -2.861160199476264e-05, -1.644931106841195e-05, -2.3816700726638036e-07, -0.0017944386945658347, -0.0165573815650801, -0.0313181433488866, 0.03162841620312984, -0.0038111072118271186, 0.05341875464639912, 0.03288094886766869, 0.010814676710169523, 0.1321398417133056, 0.08491685960646252, 0.03279006044400535, -0.002557573614424163, -0.025727424116117045, -0.0043423916645354554, 0.006898248483899635, -0.06470812218100706, -0.07850232166376023, -0.10657966322466356, -0.15577620739470088, -0.09850337514652492, -0.1747297707026842, -0.05939706527040291, -0.02196055665022568, -0.005516653597929275, -0.008857141462340795, 0.010294518318868446, 2.3473787634870096e-05, -1.3221090973529031e-05, -1.8692172345089055e-06, 1.5170233095210887e-05, -1.450355428491732e-05, -0.002545016989308536, -0.011273302214701388, -0.0188699858433481, -0.043000992851577664, -0.04014607546802384, -0.012408925582825596, 0.04695622095293879, 0.05663042282283412, -0.04107223013144807, -0.05583535297591278, -0.19545175630817616, -0.15534578673501453, -0.09224690817893319, -0.1017359942442026, -0.03040030118769157, -0.08465964324742126, -0.16798159265439505, -0.10459282369843145, -0.13842372491112026, -0.1884926468078295, -0.12698780329085935, -0.11974489252704318, -0.06848327555071139, -0.03168070006199658, -0.027754615518288242, -0.0030072966222730838, 0.004110238056936271, 1.4451406121630196e-05, -1.8429424968824873e-05, -4.011554058608697e-06, -2.7974731819581592e-05, -1.889433329764159e-05, -0.007920164850165532, -0.004803382922658332, -0.056276619288207076, -0.004379901621179702, -0.07229518875414291, 0.020181864295162506, -0.0480991591174691, -0.07689450114089047, -0.07708285959888202, -0.09529250444393945, -0.17153412449824174, -0.11519955425577982, -0.18160079075022306, -0.06566695250117084, -0.04446879350172792, -0.09402060996147174, -0.1087880722178352, -0.11814880918821355, -0.19541612423907537, -0.24470163400882608, -0.11381397454134072, -0.15457068803818605, -0.08744207436952585, -0.055754299157353554, -0.009802773620765258, 0.0011864049607523976, 0.00600969841793803, -1.0968012080714498e-05, -7.135348248368888e-06, -3.778821510436685e-05, 2.4422726457501292e-05, -0.0025396918940767234, -0.002705599344626677, -0.044983549000411883, -0.0006867693335416559, 0.05977283199527289, -0.05755549142487838, -0.07743292526575779, -0.08669921323565964, -0.11154973922071616, -0.11068740342469224, -0.0853669653635477, -0.12310497586868605, -0.09379179282486291, -0.12758614758759998, -0.11075441870438893, 0.006391761379365221, -0.04545211616138625, -0.04861840431870842, -0.13637396148949935, -0.15830409557514533, -0.22121759176149122, -0.14690422203668713, -0.11120773017665248, -0.13041580865274993, -0.005621204827001316, 0.013958581188209975, -0.008367210568931496, 0.0001918179399756671, -1.1754892343588639e-06, -1.5464869104017333e-05, 3.402490730986581e-05, 1.718322965589176e-05, 2.0529651804060588e-05, -0.00271201070962113, -0.03956626978579809, 0.014362670657255553, -0.01760682166435818, 0.026769454003357125, -0.07588125827304983, -0.09399104583922153, -0.19374643235893985, -0.16245557541969652, -0.10715445613523929, -0.06021526670834959, -0.03502458693288385, -0.08390271293957, -0.14076617958313026, -0.06638866873448356, -0.06161336981233696, -0.029139147625073032, -0.10255624503592745, -0.05248190513292196, -0.08996932909710548, -0.10681808706316917, -0.03807941111736262, -0.08550183433579997, 0.001204414140939723, 0.02503083658167373, -0.002402620374599739, -4.8616828360870525e-06, 1.1084177006226324e-05, -1.3792517194421221e-05, -1.1056346199999423e-05, -3.6938509978170415e-06, -2.9125240473218154e-05, -0.0025485326210833367, -0.003890670411575775, -0.002733948344243695, -0.019961095958487232, 0.04588305458100925, -0.03788144767221074, -0.06287737506080249, -0.1548137838835124, -0.12868286829992565, -0.08260448572812404, -0.033372127677112944, -0.09747941053504823, -0.06450676890243395, -0.07264933764486221, -0.05125385694657249, -0.0034034355418597405, -0.006542779482714036, -0.0785498425630393, 0.051590852178521655, 0.01894473772178453, -0.0921721418239257, -0.10144199059366195, -0.06412145861889064, 0.02699059793657599, 0.04311393833092442, 0.00023416753080464413, 4.362675355414312e-06, -3.1934694152035383e-06, -3.470209360641263e-06, 1.1487068699884959e-05, 2.0948657259204727e-05, -1.6033360995527627e-05, -0.0007558327365830176, 0.0024339636435142397, 0.02618628771671692, -0.0057795242504657075, 0.059743025402434986, -0.018727516159657513, -0.08092865194819289, -0.09650723413979155, -0.14448441278087137, -0.09975125756465877, -0.1154937315839641, -0.07225905830235178, -0.08153932583811678, -0.1709836989785421, -0.07083828049693233, 0.005941817194103122, 0.005093921634464268, -0.0064911303802124435, 0.047211187345729363, 0.04847399268188627, -0.02245965252991088, -0.0906513299943256, -0.05901793200018529, 0.03755193233961674, 0.033926827542673774, 8.19807861701362e-06, 1.07593654059478e-05, -9.673381705047675e-06, -6.703284007203184e-06, -1.869434842418364e-05, 7.398317719076465e-07, -1.532771895269493e-05, 1.2713930750909191e-05, 0.0013238202359067905, -0.0009450668443329403, -0.018062847391904842, 0.04616165915015425, 0.005421152804005877, -0.04593514156742647, -0.07156484045434908, -0.11258530798023637, -0.08398396815087267, -0.07249124315738596, -0.10702481573403894, -0.10874437465747272, -0.14696523073817558, 0.004654768926181057, 0.06917506735772112, 0.03521224411978993, 0.044103224883527754, 0.04764898219777847, 0.025053200208462374, 0.025544111618311414, 0.005022801593686416, -0.00873912866880818, 0.05969004629559691, 0.004148876275182463, -5.9261193762639675e-06, -1.5124856309495062e-05, -1.910736725792853e-05, -3.95971746592774e-06, -1.8190145639212225e-05, 1.5695234368345313e-05, 1.6011778348102353e-05, -1.9022556068631864e-05, -0.0007508930585238035, -0.006180956011019836, -0.056833070897415, 0.07439218752977175, 0.03625366318229651, 0.0023234268703833075, -0.010939959848659062, -0.04394446710480026, 0.002263285838503246, -0.08774046750787907, -0.08106251978340005, -0.0880432910128677, -0.14995982697083624, -0.04595096789443165, 0.05205743581205726, 0.07607073998267416, 0.02043035004668398, 0.06788553207658515, 0.0245087210180631, 0.013672753186637283, -0.003276083964885158, 0.10959106513776183, 0.03782249293669233, 0.0033942868856264956, -1.4281176720870139e-06, -1.833420553168853e-05, 2.0294965039275267e-05, -1.7232174381934647e-06, -1.6008071888257286e-06, -9.961627742735294e-06, -5.381739275059395e-06, 1.3835113888326775e-05, 3.7505960844736645e-06, -0.013136689758268026, -0.019816887452173585, 0.00522179268465419, 0.007197126552064857, -0.08880141975697053, -0.029419454821584135, -0.041009905034492075, -0.10197597939335862, -0.044772996553783334, -0.0698409114540893, -0.06007525379786972, -0.08578257600252759, -0.10226994850710917, -0.017747556688457282, 0.02058490226149273, 0.016614430863963126, 0.026998746209077214, 0.03714974712112752, 0.03432765136963058, 0.07759954418541251, 0.0653228138399459, 0.04185291305070301, -1.5443958585498567e-06, 4.906036713524241e-05, -2.9754492398421353e-05, 6.926615503142282e-06, -7.778858118896061e-06, -3.567038914003229e-05, 1.1592957540182995e-05, 2.3661068520356512e-05, -1.9225531500390344e-05, 3.701720343485305e-05, 0.002445551050654062, -0.01853311087811933, -0.01400520433387083, -0.050042581708920786, -0.12791200226708566, -0.04233876048156026, -0.03193344353272042, -0.030437437256102793, -0.09310063638538259, -0.06268098539114829, -0.0995018498056198, -0.0764519852303445, -0.07301041455977396, -0.05833585688800665, -0.010458773730592178, -0.06575990655385076, 0.007581432554019113, -0.005489195732736099, 0.05081638843413083, 0.09178983905249817, 0.040669437760288654, 0.04676043658834096, -3.1700322412538126e-05, 4.152092822680625e-05, -2.8096191561180885e-05, -1.1091435129257974e-05, -1.6234165085901488e-06, 4.288937993608762e-05, 5.336968215589743e-06, -1.4002524214875048e-05, -2.0855607172230902e-05, 0.003811877853360673, 0.007424850663566665, 0.00014998706441131615, -0.032944815719314985, -0.08426175108910099, -0.05995086112808106, -0.04842056615147174, 0.005166768733977003, 0.0037912449745900025, -0.0118695265805897, 0.009585366432116087, -0.04371022877435502, -0.0688752163872047, -0.030128712249388914, -0.14450360411362176, -0.07053915304000181, -0.05514464397518289, 0.0510772541512208, 0.023820692542439452, 0.03736528239240396, 0.09381872052425987, 0.021797242158568795, -0.015953270139914287, -0.002497706894604364, -1.974608077576596e-06, -1.8197179132501532e-05, 1.0305025987545902e-05, -5.283104924210865e-10, -7.145301999133983e-06, 1.26273332944501e-05, -4.026093481252971e-06, 4.338619356306194e-05, 0.0018920920922063048, 0.015727551894360654, 0.00012131403225330915, -0.09067574019851508, -0.07842462635623836, -0.07540205470502909, -0.030598027304921182, 0.03554502679767998, 0.027950799358023838, 0.00017633197411297805, 0.0611476626902253, -0.014945322566848055, -0.03501957279931334, -0.03722999874634299, -0.12197798381542652, -0.05640852834348297, -0.017536423669579245, -0.02474374872746001, -0.04213651900597275, -0.07346531578950737, -0.025164455950233405, -0.026048737845741587, -0.02967406137487455, -0.005519356742214804, 7.954764163864724e-06, -1.3811907670275457e-05, 1.1634555957001098e-05, -1.6717133040817037e-05, 6.289534569287604e-06, -3.970071209169228e-06, 1.930491973570867e-05, 2.6033258534986296e-05, 0.0005591803855775233, 0.013286655561513708, 0.01177614774317014, -0.08761007746297671, -0.15100607857170031, -0.13040128702681753, -0.07834874862861466, 0.002827908867778334, 0.03126639983438649, 0.031033075797748735, 0.025272644641284998, 0.019294463822914366, -0.03606863591699438, -0.04338104781924163, -0.05955296551981267, -0.014132224607977906, 0.0013569235432637245, -0.061656815420339156, -0.07502136779638022, -0.0747641053599221, -0.12111284731796688, -0.05028330651430525, -0.06413777176390434, -0.009403024296025542, -0.00041702237137619864, -8.841245046180318e-06, 1.348103356441647e-06, -6.483720627433232e-06, 8.89276789930614e-06, 2.532223722468372e-05, 4.28109896189145e-05, 0.0001654269246676076, 0.0008079865298268297, 0.008843680221571603, 0.03474404968803386, -0.09665834798287201, -0.157229354180417, -0.15118752442222008, -0.18451432762201583, -0.09547964283287311, 0.018129413223406953, 0.01584934390184432, 0.0832253447535868, 0.003788083894861705, -0.0354003566638311, -0.11862397172174532, -0.030423835579362287, -0.005968180724259235, -0.05414159116993485, -0.09289805699633126, -0.12592665813319748, -0.1816054515964903, -0.19452700318763388, -0.1418372693586938, -0.09187304098335605, -0.016026872621091304, -0.0005138499649299138, 1.36824996596471e-05, 1.20233014031951e-07, -1.5463750088544558e-05, -3.967779362390954e-06, 4.853459834365112e-06, 0.00016580372394021958, 0.0002893207949416919, 0.004705931844236592, 0.007747407047370609, 0.019012855961031146, -0.06145946101496795, -0.10627657634343043, -0.09541920946411281, -0.08335070355563386, -0.054098955813931135, 0.032341955499536425, 0.042071843105309786, 0.04748513335955988, 0.0014770251204902717, -0.11254987494325164, -0.08823131721920256, -0.005777948354125941, -0.07752087450029513, -0.07995174969015346, -0.13582793390708683, -0.0937700517685063, -0.13290041997708923, -0.14654581075284628, -0.1564991652529958, -0.09989522490386521, -0.03971710925375249, 0.015865511012067925, -6.1029144178016326e-06, -4.1006886191665264e-05, 1.6404123731626742e-05, -3.341408695564208e-06, 1.1105922397329058e-05, 0.0001421199569375178, 0.0004829850683314474, 0.0006084105882430626, 0.0014057416087263819, 0.012536317698487738, 0.01896868987186082, -0.0664329659189782, -0.08140380198999142, 0.009073186453887654, -0.016201690595213508, 0.03681755131001371, 0.14416210749820954, 0.06167223959029677, -0.03200049004136843, -0.10626984133526177, -0.12057657885074233, -0.11030328146521831, -0.023967052056235352, -0.010934878864549262, -0.08653913155942816, -0.14154761558433046, -0.14345109075315235, -0.14599384185133152, -0.132757169569911, -0.059844447346545766, -0.03414937472018961, -0.007897389522683883, -5.414582962328538e-05, -1.904946183462653e-05, -4.827318502412537e-06, 2.4870939297688855e-06, 4.752550293678067e-05, 0.00015034313542327055, 0.0004898930045335165, 0.0005262730579671884, 0.027628962592334806, 0.00860753641061497, 0.009240651404632032, -0.07632226647984346, -0.042215135658844403, 0.03292721850012812, -0.0365528433518229, 0.06139041328394556, 0.07512314993293517, 0.010192663192021782, 0.02836108991210388, 0.015714371983672128, -0.003630817497860623, 0.03705362796135986, -0.026675161616721104, -0.03809030254820573, -0.09769196236304914, -0.10910073172923711, -0.0729556729400457, -0.10616567769008893, -0.04321515887246039, 0.022635296041603286, 0.012754274810258147, -0.010372655315131258, -0.0010050607062249573, 2.9235843630131553e-05, 3.537867264783633e-05, -3.278331307323936e-06, 1.2974364633564518e-05, 7.447641553889032e-05, 0.00013058227687389004, 0.006826819567169613, 0.006264932759654883, 0.04428161361434869, 0.06860539918776046, -0.03734790690598853, -0.041537120200120355, -0.06692471672320853, -0.04824919483338341, 0.1263904444533724, 0.07061064701158003, -0.008115815118690644, 0.047570324157751157, 0.0973240349620414, 0.09349437114920624, 0.052929344456123475, -0.03189646622780651, -0.02311156297844857, 0.014082401922122229, -0.08791742632057199, -0.09332512555695475, -0.10273842663493075, -0.028062874058901326, 0.023083822650480607, 0.0248711609933273, -0.008656718311375657, -0.004238540028061521, 4.899177570621408e-05, -6.266905954963876e-06, 1.0388417510377448e-05, 1.2270568933712341e-05, 5.717042885350166e-05, 6.157626887449147e-05, 0.00024958472154917464, 0.013792789476628152, 0.03065579898374663, 0.06883178860057378, 0.03308401307885888, 0.07988760832163311, -0.03752391098184083, -0.049934288630928206, 0.0616833649312308, 0.11418718336487932, 0.12011452113552662, 0.12256132931619954, 0.08094975851764692, 0.08506493160832267, 0.03079401543324644, 0.025382714688063687, 0.019563496592258266, -0.0219327779648458, -0.0271847080160069, 0.024912791859341234, 0.02059526712014156, 0.03977274222258011, -0.015840221142047427, 0.03620215213420117, -0.010462426288297527, -0.028294240608745483, -0.007085271056879532, 1.0581717101115538e-06, 3.2784628515371675e-05, 3.121032051588098e-05, 3.8282562418890814e-05, -0.00025608477606442416, -0.00025718740985686343, 0.014263041452391552, 0.03726336820747085, 0.026011653786260764, 0.10342741328505042, 0.11023020881299452, 0.02573842323666558, -0.003008425180804389, 0.10916769073181858, 0.10964554615318158, 0.04784793388184759, 0.013569782355265306, 0.005762769578155341, 0.0566134746377846, 0.020133800660624267, 0.02405121277272102, 0.01861034140317254, 0.022376168866876756, -0.01847676314356915, 0.014606302855134277, 0.055319860864347585, 0.06759452395915624, -0.00801092166962652, 0.020247725297765164, 0.036114735406425694, -0.043749567869914484, -0.03069254620297285, -1.2372846930279254e-05, 1.6450108239670092e-05, -6.949148235395983e-07, -3.7499502087065215e-06, 2.0404472296728937e-05, -0.00028631138353361695, 0.003251600355762517, 0.011963573684905538, 0.013402264111450443, 0.014470412601923038, 0.031129332226540993, 0.03055674221332102, 0.040975196998373396, 0.05394347848304804, 0.08503821649562594, 0.05520374470651287, 0.014767743260552782, 0.013181737287846482, -0.04043052320186412, 0.03730262392355992, 0.02388057207236984, -0.009068383918410377, 0.014455947895295878, 0.02261271537011537, 0.05919706399754203, 0.051082435359909376, 0.13374833089004703, 0.10975510137793146, 0.0688263309209386, 0.021119939543641518, 0.010653174846792374, -0.043951090897314964, -0.007473807132393983, 2.0063806459334477e-05, -2.5183205073172696e-05, -1.3053448865907068e-05, -1.6832561077117324e-05, -3.74460174140409e-05, -0.005670832278762444, 0.002214331813259402, 0.028436985349766904, 0.03593687776182091, 0.00391817767336438, 0.15280682123444297, 0.0659583997029606, 0.05412441623803615, 0.03358672706274892, -0.0031346373029339115, -0.005938555621487708, 0.0019620875444477937, -0.043489461896539135, -0.057663111068159245, -0.03330734057585184, -0.0675456379712233, 0.01573410594335517, 0.07806801315410646, 0.02921885289723615, 0.12608737876342688, 0.1042664107296779, 0.12620554671180378, 0.04967717120276977, 0.04128774082362579, 0.010770311908545592, -0.02468565286402371, 0.005675926585279586, -1.7479900262284764e-05, 2.692787548522002e-05, 7.465342790053985e-06, 4.1760311690720967e-07, -1.2481622411018715e-05, -0.00570126263126753, 0.013563017119854552, 0.041455844449068566, 0.0546298351160565, -0.02805670823082029, 0.07155360202074561, 0.20305143983995405, 0.14437319972952928, 0.052849347872439306, 0.02213068010692107, -0.09575193625028627, -0.11026399600795851, -0.12213513763161049, -0.07603462199883379, -0.06694150159954768, -0.055364738416011874, -0.02875896908385529, 0.022306857866062412, 0.058290968834598916, 0.07204512040846646, 0.03172611025387908, 0.038771106339046305, 0.03353168847679621, 0.007840745415371475, 0.02452408719101145, -0.015721257959736355, 0.008208813965334483, 1.3206335977680337e-06, 3.965300949302234e-06, 1.4814330463182471e-05, 1.3200303436428733e-05, -1.8394518607919123e-06, 2.716723709924484e-07, -0.019538564977968152, -0.0005002954083374292, 0.07036584271535394, 0.10331207996971675, -0.02062582425930065, 0.14262372740548956, 0.14695877967799884, 0.0643967420187597, -0.040686479454540875, 0.006011409199169415, -0.06879765774767418, -0.14228767008208518, -0.10263617510630224, -0.024358634042015843, -0.0069257602848194644, -0.009636482429398435, 0.0041418299507223885, -0.0069234505044621945, 0.03217136958023562, 0.026465080491116805, 0.015300506135217093, -0.006853864983077845, 0.006622487752868074, 0.014355961233221678, -0.0036003690025169428, 0.009359625043283996], [-1.574752072763396e-06, -2.590182979223873e-05, -3.001267032433652e-05, -8.955586205866173e-06, -1.735668080875314e-05, 6.454305115725216e-06, -9.104509391373625e-06, 0.00022358846961953305, 0.028733909242107787, 0.05145307313635977, -0.016938394214875866, -0.013336064709693179, -0.0452506927449567, 0.01639911742544432, -0.033984085618294746, 0.07278107914483302, -0.022121209010889497, 0.005113549527028894, 0.04095339885245341, 0.1330560373674601, -0.01717991107452011, -0.06068995354991398, -0.07454359496480294, -0.09969175195737792, -0.0808495989221288, -0.028830158795189662, -0.02913594171618784, -0.027719639330509704, -0.02991329022593351, -0.035353174227108645, -0.0020052903808396466, 0.0003787367916648479, -1.6573961432411926e-05, -9.628994376495304e-06, 1.7401658421633393e-06, -2.678939026436227e-05, -7.296257039851109e-06, 1.7426849600598701e-06, 0.002113770448048955, 0.011713329724055291, -0.009659687615620255, 0.03379439267225192, -0.05435744175783879, -0.09032122437018171, -0.10238165439092324, -0.0690420499503084, -0.07970847460881143, -0.08037058175370136, 0.02505665930889333, 0.0705941851370145, -0.05634608590673029, -0.05037313019059222, -0.02234176809921629, -0.05050927116786869, -0.08918984163831443, -0.11492745265664431, -0.09495383795137485, -0.08391942213524572, -0.08086704619387798, -0.012011643509368963, -0.021889570855474137, -0.031056345110105396, -0.03947358025660654, 0.000403872236651614, -9.675815374958434e-06, -5.904806501285852e-06, -1.0902272051384743e-06, 3.301107081742356e-05, 1.3096240789599178e-05, 0.0015125429706746131, -0.001375228455334127, 0.06587219446769726, -0.020343296251924887, 0.0008084372340352516, -0.028971807377824513, -0.05055306451689696, -0.06942792927057916, -0.052810600723394927, -0.050984122847476374, -0.038290714301637385, -0.02081051703751615, -0.010396914013531551, -0.007792755996201887, -0.024886758504804242, -0.003956352388011759, 0.020181183038143726, -0.02576217910336613, -0.01834296681126974, -0.11623186764620717, -0.07610520700086128, -0.04674879513903047, -0.05537958381578567, -0.018365240738479182, -0.03172885682062513, -0.04213734881903356, -0.037191098279984805, 1.7903148844766344e-05, -1.5538185542004865e-05, 1.0124568575571844e-05, -1.6137580425205218e-05, 2.1277579807444605e-06, -0.007080840103298485, 0.020897155594888053, -0.016465993638923822, -0.02354570862088895, 0.043361699560560234, -0.12846896080999404, -0.08937386851281806, -0.053650699136683966, -0.06329725352064537, -0.035772225171384966, -0.015579322243701788, -0.02567615832359048, -0.030202979780692734, -0.0532816496187803, -0.023846571533318376, -0.01823475760877706, 0.00751166664218738, -0.00021206112872939635, -0.039361780202916405, -0.09448782978627523, -0.12289965708744612, -0.02479816191048735, -0.04645766574769766, -0.033961298359865305, -0.03430645387486517, -0.02308174778274963, 0.0004942523610168896, 4.057104173858064e-06, -7.781347781798862e-06, -9.834114147184788e-06, -6.716185698152196e-06, -0.00630072262904735, -0.006615689194757929, -0.05539352030204328, -0.010306955893974741, 0.054557181550468986, -0.15295829143586412, -0.10827970253855806, -0.04827103122035887, -0.04323771186818431, -0.07544487450888264, -0.03626466374650352, -0.057467504488006825, -0.05017278428294829, -0.001702699104194865, 0.0010045716438619426, -0.026324381610738308, -0.10029066323738216, -0.00740596575702812, -0.0009660757321853876, 0.030451323264844118, -0.08332462859914944, -0.08083651498856338, 0.0011941145048494457, -0.05801202373010362, -0.03592117748663033, -0.033119441447112034, 0.016642255378286293, 0.012430788815456778, -5.536514591963395e-06, 1.9392854318027864e-05, 3.2474256219716477e-07, 2.6183027949685873e-05, -0.004049028050142463, -0.04421851226840525, -0.0694618871980878, 0.023074874971911217, -0.053386923463416586, -0.02266757687428662, -0.06301294243761653, -0.07381868547299987, -0.08101578213705812, -0.130997330648813, -0.036326905454870814, 0.012872019962939588, 0.052550915678617076, 0.11406211672242302, 0.07999013089501462, 0.01949391502973336, -0.026646948837062163, -0.04587928587139027, -0.0309842875201247, -0.008686487885735915, -0.07977781702911844, -0.06613572143534419, -0.049431120506694334, -0.04614672565461485, -0.034156033294555584, -0.024733720103877407, 0.012665301948128916, 0.00040200661884199083, 4.877713060195126e-06, -2.9759194913909034e-06, 3.073146063343608e-06, -2.540906172540386e-05, -0.005710274108680619, -0.06270062131664421, 0.02281544639815724, -0.04514934026190717, -0.07582980412132638, 0.00030996120820016813, -0.08530175629315194, -0.1016052396749592, -0.06278718502357822, -0.0233001960625915, -0.014328508415404402, 0.016817925797099946, -0.056027621579231635, -0.10208187391401109, -0.028763176311689224, 0.017251029548863792, -0.05721299425924476, -0.05141022813929142, 0.0049991819938008, -0.01771842505830502, -0.04061237674787891, -0.04446345843439759, 0.02522600070918383, -0.02340090099230413, 0.00912481313642895, 0.009477684439981584, 0.012377756230488784, 0.00039666573830330747, -1.1049280444791773e-05, -4.353975605398787e-06, 6.37525766279608e-06, -2.254256414765723e-05, 0.0026360560626034505, -0.05108285541388059, -0.009888720606772906, -0.0676659057017954, -0.020507337754673782, -0.039744146130386016, -0.1850932541745461, -0.14669454289712383, -0.18386818573094593, -0.12946483413430762, -0.08698551209172461, -0.07193268700969137, -0.07262268048740664, -0.005151198040058385, 0.0541279675754599, 0.06141909070362991, 0.010307350245710322, 0.04229144398156604, -0.0044531580549134284, 0.0622095997301029, 0.06854755151511936, 0.018511050577533005, 0.06540383746804171, 0.019727581058361737, 0.005688423746748717, 0.012088161980456771, 0.012260128674889107, 1.2932344360347288e-05, -2.2966352484693492e-05, 1.5403784369549092e-06, -3.684638794029457e-05, 0.003434503180490581, -0.03241886063335809, -0.03416775017784762, -0.03714539471251159, -0.08633272455949285, -0.04706161885451161, -0.09820613774604149, -0.2269590426976578, -0.1384252455386928, -0.16014697442541245, -0.1919004911536032, -0.17845673957258937, -0.08681722432817501, 0.08476045354574593, -0.006682268255357598, 0.08073398273504413, 0.050493245373820016, 0.09326136243648776, 0.0501886592376789, 0.03890970881798628, 0.07137494170153834, 0.0768140178056892, 0.0027426253852220863, 0.07493530349659992, 0.022854715114497142, 0.012663980384332266, 0.01308854694841329, -2.4414691037925193e-05, -5.137167560408317e-06, 3.6085097615510364e-07, 1.0020013298091561e-05, -4.624762558983097e-06, 0.0075834750758928, -0.04017742846237199, -0.059987487497672375, -0.12174636575846694, -0.08910312486820639, -0.01102341065376168, -0.19583403039804528, -0.21698654300303336, -0.22613554351335638, -0.20594049701330275, -0.18145122789335624, -0.18574735615819227, -0.026792456193440027, 0.023740577351177402, 0.026838402949202294, 0.007950242210476924, 0.08439685616142811, 0.13885342258264752, 0.0720094477252222, 0.12474760825102874, 0.09749980446256336, 0.04001802773757612, 0.03893952738866425, 0.029809578387869677, 0.02174814003502033, 0.009793381263466032, 0.015578099669686445, -3.5631498278757363e-07, 1.1794141982810488e-06, 1.3687095129065913e-05, -2.012119090126338e-05, 0.003437656756086231, 0.005116438541887292, -0.007745379670605865, 0.0004898569973772604, -0.1307933055815823, -0.08001131024880101, -0.11317229196280794, -0.1594874683535975, -0.20585550003462522, -0.21030670776110863, -0.17886971849122096, -0.11784279335310474, -0.07932781580229825, -0.005303826747129707, -0.006499284752960286, 0.036985526175354534, 0.050316381637104585, 0.0436798187280268, 0.0442650209496782, 0.02786765302642684, 0.04341494162892992, 0.008909553703307854, 0.03005149691622431, 0.048027666093855406, 0.029209316466999428, 0.031009330454417935, 0.009222992295723483, 0.002148781112607184, -1.5163649217186479e-05, 1.502888469968398e-05, 1.0642877219346447e-05, 1.1294237961962281e-05, -1.744143602483047e-05, 0.005118884993694141, 0.004229611699774904, 0.01758336635058483, -0.06816458943119404, -0.09574584468864701, -0.17051230623763444, -0.18714566014812514, -0.2426738301451357, -0.21105970983183453, -0.18814490815670598, -0.062372724183433294, 0.014031344756508928, 0.06427138568025116, 0.07309595756057279, 0.07556075251203309, 0.10476693147789395, 0.0380691481584088, -0.06106749099625143, -0.03222697836243641, -0.009256910949196546, 0.022026170919128438, 0.04036047021529834, 0.06982347874935897, 0.033005291076853814, 0.03617846129872604, 0.001423336031625012, 4.5666946804613085e-08, 1.981992061517e-05, -5.027908279403709e-08, 6.783657758738745e-06, -3.229363494392733e-06, -4.172010284806627e-05, 0.003433258828905734, 0.021117751724707718, -0.04016780830729039, -0.07017506745050615, -0.1212375819144149, -0.17040680219144677, -0.21969461004125437, -0.17886995462669267, -0.14579355749519454, -0.14331976762770487, -0.08824957507918833, -0.03248470025400279, 0.09052693702877333, 0.10804888022612938, 0.09257438024770098, 0.06302204536122771, 0.018464823175226484, -0.004445162016336162, -0.10418665670827566, -0.08102871794163265, -0.024327106051052684, -0.015118873784073473, 0.09195136597343805, 0.03744937041326067, 0.04938603595627262, 0.00165232088969583, 1.223693961379597e-06, 3.907180996019428e-06, -1.1200738233169868e-05, 2.9883144714196167e-05, 4.3798751176999264e-07, 2.3071139662810878e-05, 0.0022807659723560287, 0.010934009241428342, 0.05137099809913537, -0.09485084424282823, -0.11031575683803281, -0.13617986940980592, -0.12421779488002048, -0.13196127538072888, -0.12645811226884968, -0.13672873573769612, -0.05511675760501138, 0.04174734111743622, 0.05507914036270082, 0.05588395216471327, 0.052963476291455175, 0.058153747425176316, -0.0054485303817162455, 0.0029246413504852345, -0.10280634589939984, -0.10657699451757444, -0.09628522884969215, -0.004118662705949722, 0.06942555442620153, 0.05224505772421287, 0.04859813335908127, 2.5695221848426095e-05, -7.593799846871163e-07, 1.9220633765824206e-05, -5.500321156427264e-06, 2.6071899160027455e-05, 3.061326404846078e-06, -4.645153108805765e-06, -6.356373106692097e-06, 0.01243391783848511, 0.009967498921983321, -0.020446433799488836, 0.027198489872918605, -0.06529770033093632, -0.10383355790756911, -0.07230264370479626, -0.018880833242569364, -0.06297258209650014, -0.05436783784685183, 0.049790382048326774, -0.10507071353330946, -0.012551209744578346, -0.019144320957591613, -0.026973511360602314, -0.04624935188758522, -0.02666922434985815, -0.052891617828402605, -0.11482160845368035, -0.08498655518657061, -0.017015333934300454, 0.028281821209166527, 0.0708348067683369, 0.033205831161979144, -6.65597030302054e-06, -6.075168156348073e-06, -3.7694170405677393e-06, 2.3259032087344786e-06, 8.153873361965911e-06, 2.1030979927913557e-05, 1.97951350384513e-05, 1.8776011140270216e-05, 0.0022475287802883404, 0.0017170555292872372, 0.011463543703225006, -0.03630607458232501, -0.02819916436429683, -0.049002262369070224, -0.06650630187742788, 0.017353124886319536, -0.022936111613573184, 0.035249338923805607, 0.0022433870983386136, 0.014987330228868846, 0.050331278446805, 0.08672523540213967, -0.05256850793223829, -0.062186866776110225, -0.06646871636429404, -0.03264680055798902, -0.00811734413568175, -0.03785663935877384, -0.06016747797314637, 0.06793095433728029, 0.024778561733458385, 0.00013954997158252544, -1.8277056969223963e-05, 1.3203384768907611e-05, -2.4524939241299363e-06, -3.140705526100359e-05, 4.251426316525749e-06, -8.448045019782654e-07, -1.4941843529755368e-05, -6.9322396357813635e-06, 1.2685560860337438e-06, 0.004605198700599796, 0.02412174181782404, 0.03561229936974436, -0.015801196415580143, 0.026676728287254977, 0.0071928536576778964, -0.005939629080792749, -0.032169842991608515, 0.03578247652571349, 0.021572866590120802, 0.0990338138186229, 0.10940093173338249, 0.10708611356712186, 0.05691455087032229, 0.14854649171301804, -0.01390466334927059, -0.06857800775847495, -0.07451612767406417, 0.019551462282076482, -0.006948785698774384, 0.015692093350182318, 0.007929842411417296, -2.764195193573747e-05, 2.1795658082277007e-05, 7.542619606647345e-07, 2.553340649632665e-05, 2.5009220823125576e-06, 4.904862860116097e-06, -9.373697472270563e-06, -1.0349993795276922e-05, -1.1124013570439181e-05, -0.00018553558476933443, -0.0048980548085608136, 0.01925840524391196, 0.03613141689955323, -0.0029596723536961644, 0.008170456475511064, -0.054340201348218625, -0.08969771612985114, -0.0851808619927486, -0.06213589010660749, -0.05781735733095795, 0.003494432602040392, 0.05358240698759908, 0.16598807387931852, 0.12435404804232605, 0.1549204472499222, 0.05084191971408032, -0.012979002150599729, -0.024208273257428074, 0.04671999097469561, 0.07032192898725882, -0.0705360491452076, 0.06661657689487067, -1.2217774450693894e-05, -1.203962332025407e-05, -4.233373470860421e-05, -2.4579045517709928e-05, -1.8777975974773925e-05, 6.126065002135889e-06, 1.296363307058877e-05, -1.7512467188615182e-06, -2.6428720299971475e-05, 0.000529811541734574, -0.004618160069336147, -0.0403768314464163, 0.06831653502610291, 0.07725063937102171, 0.057908342003895955, 0.05112589553857096, -0.0004178149572972077, -0.016991875199879776, -0.07772221691093704, -0.0024890577831400006, 0.059836275811928706, 0.08907960376318515, 0.050375674952740146, 0.1281192067309335, 0.11123019215158021, 0.09938908349097775, 0.03669251743241583, 0.010692866187656825, 0.08059317381286057, 0.049317566038751245, -0.0793790744128602, -0.02310294667479006, -0.004656429745649901, 7.988271018668677e-06, 6.676954227430296e-06, 7.255062329458691e-06, 3.4818453166191805e-05, -8.750922360159166e-06, 1.0433019653849898e-05, 2.1578056046789916e-05, -0.00013752451090670418, -0.0005225152125203264, 0.003345190794352916, 0.05050838510994456, 0.09712883098525342, 0.1561006141595265, 0.16770922936395893, 0.07764577095822645, 0.014521430991166356, 0.06337624024302108, -0.033039245868514436, 0.04242503012826383, -0.012298712861090529, 0.05693386859672779, 0.045615365754676424, 0.13493388060042405, 0.11471646700721733, 0.011834797309705823, -0.03289403618698413, 0.01564984120435678, 0.08731849730079244, 0.13559972030473422, -0.05049267362346361, -0.05276488678142443, 0.007159301642141828, -3.4355248337929545e-05, -7.980589086467552e-06, 1.4437993783215353e-06, 4.393583298118111e-06, -3.214469387567829e-06, -1.1783887447166437e-05, 2.244428495308641e-05, -0.00016217015285398015, -0.0006369998218174915, 7.882010236674325e-05, 0.046496825102065285, 0.1636894080525837, 0.17538661598041516, 0.22517020983658298, 0.21877516374878042, 0.15569680980390113, 0.09116258508754721, 0.032227564749639406, 0.04149387712335804, 0.18773305478553914, 0.05494751732655992, 0.058366649152405595, 0.026547786062911423, 0.08735417539504758, 0.035681137968322854, 0.008583722060764385, 0.05159566575198306, 0.05837042332393072, 0.05719557038359354, 0.02183028064938925, -0.040673111977126156, 0.0039044086566598643, 0.0004917286049370067, 1.2805511609311004e-05, 6.991999794384504e-06, -2.7804304133334738e-05, 2.2054590418453997e-06, -2.5599976872141746e-06, -0.00016162298631254853, -0.0004163256790979674, -0.000641162504132728, 0.0011014516259585051, 0.03369362944900386, 0.23649289575274515, 0.2892058294863062, 0.3252476581294793, 0.29818124758743, 0.15473307518110152, 0.149384058501571, 0.04688780091030587, 0.08311421930331847, 0.0877234666626842, 0.0969083962415506, 0.04612121430528771, 0.01742931091499005, 0.10269471480991033, 0.04067506161315766, 0.050158758658077986, 0.05110606179341658, 0.013772455763492944, 0.04756586702979459, 0.032171221004544344, -0.016356832352618755, -0.0312875054496647, 0.0005497158299494114, 1.3324067150048222e-05, -1.0411964033707178e-05, 2.0597400760586324e-05, 7.962893054496311e-06, -6.201684170411482e-07, -2.106726822731682e-05, -0.00021137354871390718, -0.0004984172003416177, -0.0006603850048935785, 0.02795766815398524, 0.17309499742680007, 0.23662212616982933, 0.34951951486198923, 0.2948165173061803, 0.1995501626700189, 0.15134705432912718, 0.10704346107837566, 0.08093713466771514, 0.07547502833836164, 0.1557383482247986, 0.00813388982135065, 0.00194520060991628, 0.050679801822426755, 0.040554882632899504, 0.01767959192981353, -0.006055334579536962, 0.0708933311553394, 0.13170655148010263, 0.01764980998396131, 0.0021192594536265544, 0.004149200061951386, -0.04223477019742706, 0.00021267140607908108, 5.732198507110598e-06, -1.0799369692123326e-05, -6.49849238707036e-06, -1.2045706969013232e-05, -3.186672163681516e-05, -0.00023980066801966582, -0.00019719470845486615, 0.007807223026712945, 0.0053299966566700135, 0.05740753285545967, 0.1583639455412799, 0.18679415557373832, 0.22575335739456534, 0.19175126668122366, 0.18161916257750893, 0.12658239248689243, 0.061622377978267924, 0.05342555575593136, 0.07803761127365759, 0.05199234759744244, 0.07541646053084036, 0.024144924654219316, 0.04550345370508896, 0.021016888912043556, 0.03237679736526438, 0.09760335521024652, 0.06927451984280814, -0.041293824827212, -0.012572324084857842, -0.04385005597904768, 0.0037085066108066365, 0.000248130203052449, 1.5260000817398263e-05, 1.8305139308800093e-05, 7.776685052878583e-06, 3.435718342442754e-06, -2.6091469025636105e-06, -3.5419211700314364e-05, -4.090535785279819e-05, -0.00026664515356563534, 0.022393725700023327, 0.059338918616165005, 0.15011316229567973, 0.17586316072121966, 0.20678863334410927, 0.14363258691901776, 0.107963766788432, 0.11706227020691845, 0.09053147408295645, 0.05978139572582206, -0.025269719178877815, -0.007042526944079044, 0.08009497873194414, 0.11154575176749619, 0.10391244448399146, 0.0712628266709086, 0.1742164880614763, 0.07509197851568696, 0.02936352329555729, -0.05315159115434668, -0.022646987025785065, -0.02420531238381074, -0.010388263514118779, 0.00067989963887628, 0.00018819649967156434, 9.833963904807503e-07, 9.862042794003563e-06, 1.3503622331528107e-05, 2.9012733380963708e-05, -7.408978117299619e-06, 1.5946020709757774e-05, -0.010756419632214843, -0.0007733738705566301, -0.019792484619356586, 0.07409264860441488, 0.07319916664320589, 0.0957748777653428, 0.13987144429063642, 0.06900835019250608, 0.0993180374315457, 0.04262629654041312, 0.06597595375597028, 0.020218638906150468, 0.11983136694777628, 0.09697376929570538, 0.17046332904970637, 0.10417334232104555, 0.165213982537456, 0.1313504800095896, 0.03524431959254424, 0.012453670959819278, -0.03546193392947543, -0.05240022571755365, -0.022632097897852553, 0.0024181964061225085, 0.0004746002016545069, 0.00019331372911465247, 6.10817107469944e-06, -2.58856408381675e-06, -1.0106573154861206e-05, -2.2591961530971612e-05, 5.784074425597489e-06, -3.021685180962308e-05, 0.011265176780184813, 0.03564564387134404, 0.03551172557304666, 0.032350418780848496, 0.048075915516897334, 0.04329515289016014, 0.06608307755905925, 0.03157364449156264, 0.05252175348389824, -0.0358205007805572, 0.010742440238300916, 0.04715975441380835, 0.1207073627125952, 0.0942022988459886, 0.16731367653965104, 0.20628201505722954, 0.1824937950905124, 0.1400517388510612, 0.0838853881670498, 0.050394269261188215, -0.030547133527987175, -0.0185211254823846, -7.630642531873346e-05, -0.035090444007161305, 0.007516782612474223, 0.001250138118174964, 2.2907287130403505e-05, -1.586322537466685e-05, -3.600135743566359e-05, 1.4049827314492416e-05, 9.024936734097815e-06, 1.4356638822086827e-05, 0.002284545961222725, 0.07585892114290736, 0.04144469947953488, -0.0499839699102212, 0.006534203366607905, -0.06588080539447988, 0.0011209234200764146, 0.006495946868237629, 0.03222340402034177, -0.05538018103979813, -0.013302572587755418, 0.04627360325923402, 0.03217812054330457, 0.021792822650886494, 0.12145722538009003, 0.10678647812280959, 0.10715892129104376, 0.11456103817926443, 0.06577854382835466, 0.01680164470677892, 0.0191737232181287, 0.0325557021588778, 0.013979438450302898, -0.014905165759479371, 0.006271204582086899, 0.008211538857110741, 1.1982096806041312e-05, -4.588121856730482e-08, -1.2941919259626631e-05, 3.006544398541385e-06, -3.987709485707833e-06, -1.2854936341649894e-05, 5.88278551859331e-07, 0.03745179260337349, -0.010831420092144304, 0.06713817913168135, 0.04838965034384315, -0.050981606369959985, 0.030104932390436778, -0.014008669376843648, 0.014096537405916, -0.019409645063048778, 0.02806569120776293, 0.06939134741466986, -0.005154292509771975, 0.03200932161767791, 0.0817574415207307, 0.026304986399442194, 0.060200304993235004, 0.06317526318314345, 0.026180580020866838, -0.003943154293835152, 0.002555548127524478, -0.036260252158138655, 0.014637153054935991, 0.050283222779721845, 0.027985484746838384, 0.009545709399919883, 0.002716410918434633, -4.575353670778738e-06, -5.343688443990158e-06, 7.814440881006587e-06, -1.0969100807015977e-05, -1.170257381816907e-05, 0.0015082878885281181, -0.0013483131595976737, 0.06559339412792778, -0.022256727687637298, -0.027475666026778735, -0.04289709701647973, -0.04558156199909334, -0.048734156437959385, -0.02734296780185522, -0.016949367548683602, 0.02382365122224373, 0.03359745166183676, 0.05224903795000095, 0.07631402710022675, 0.05356059175201589, 0.04760933367295524, 0.07067124885531927, 0.05967013566478141, -0.051644534443043295, -0.020836734144039065, -0.05071794652793896, -0.01202900656933323, 0.0573607324139232, 0.04950474243761385, 0.039897423171587836, 0.020017691970956313, 0.016985486593035854, -1.8804650665512526e-05, -3.891996469156554e-06, -4.320221507017451e-06, -2.837303725130561e-06, 1.3160009728015119e-05, 0.001514061201492518, 0.0005849416691525456, -0.007885066401908832, -0.0016960368937313645, 0.03189714865854634, 0.032375423219238024, -0.05125195887394148, -0.06461390052149875, -0.017645268653348277, -0.04079769429172853, -0.05442100256217461, -0.01854299299836463, 0.013170724553416257, 0.04535501201639609, 0.06388674652446476, 0.08143766084725727, 0.0690117127287296, 0.02047190320762648, -0.0278830883363051, -0.028152045063991195, 0.004315817988146193, 0.00012957331849449902, 0.005599697805263137, 0.049129916722452815, 0.03243732966715705, 0.028795115460203587, 0.01814614759007397, 3.0499262599100475e-05, -1.5288673101655613e-05, 2.048416747223217e-05, -7.363175633064796e-06, 5.54932971580625e-06, -1.9751758681191226e-05, -0.015754235068684758, -0.017634660876340115, -0.018053370264930327, -0.02242875836082554, 0.019214010343324605, 0.046655298406829165, -0.019537701921039048, 0.06208622104927901, 0.03676834080490663, -0.010836129483546956, -0.06840403275817812, -0.0836114532018098, -0.04011625640673797, 0.01878557423558017, 0.042999662806720525, 0.03687788198610619, 0.02662520299824882, 0.02586227053774073, 0.013397406958204966, -0.007570625039402235, -0.0022600976675245434, 0.04424272301467711, 0.03800008159641734, 0.031102751352793473, 0.018937841767413154, 0.016926419931309535], [1.8644363366534628e-06, -1.1099011926867219e-05, -1.1359365029859962e-05, -3.358455992808153e-06, 1.1995989520372773e-05, 8.123191184910981e-06, 3.3176685542073533e-06, -0.0013883833016667681, -0.008052872995505441, 0.023586661060484546, 0.03311207168998051, 0.03163485881713036, -0.0069525949712631, -0.08318322651491586, -0.01263874119459416, 0.014712934848449084, 0.057237549418857954, 0.040731505342245115, 0.06718429484968057, 0.09451692302179644, 0.03761079218521852, -0.06857330209798294, -0.062367221724288796, -0.08548526826911142, -0.07693434146211128, -0.032102051281278486, -0.012453112317096005, 0.0028386697354463005, 0.004637117286452469, -0.0010268870237614247, -0.0006291834954295472, 0.0012556366883114147, 7.533051743289552e-06, 2.885877759224596e-06, -4.322735773602581e-06, -7.433559775711228e-06, 5.420316455380659e-07, 1.4519120687329734e-06, -0.00132292212962437, -0.010090834562538571, 0.021429538865275273, 0.01812477918292952, -0.0030709381607688657, -0.04885313528035591, -0.07901454833922171, -0.03315517956393136, -0.052801722156978224, -0.06816749247151402, -0.13560202231416477, -0.07839337629663372, 0.023621331075091172, 0.0030155057586899346, -0.08354008186931258, -0.0668262202222576, -0.10842921702781153, -0.09860572089932079, -0.08493706115803784, -0.04018023926213791, -0.01665408587999077, -0.004945043248529124, 0.016730889034064444, 0.017200841437611206, 0.0005064687201186685, 0.0012647242691414665, 3.45570439508089e-06, 4.927220829444865e-06, 4.822768102118298e-07, 7.662521154878755e-06, -1.2833272159280429e-05, -1.776498722555019e-05, -0.0041090842341418975, -0.03372713281524536, -0.0008748038971306979, -0.04286953403992174, -0.05054920625308432, -0.09052261141802255, -0.07438495672477541, -0.07605433758873288, -0.06870310021258771, -0.10956127771651256, -0.12422000486189308, -0.05989890356610342, -0.06156787883182871, -0.04574840356873507, -0.04281910574624117, -0.04941873967454201, -0.11512863427471418, -0.11193238034871236, -0.030714826915397075, -0.003826839188756191, -0.010773155207757665, 0.01905771646225894, 0.018325529422641994, 0.016349889139639483, 0.01016515415096106, 0.0010188481317307929, 2.5034111524795463e-05, 7.577890255159401e-06, 2.326665098116882e-05, -9.607361671630495e-06, 3.2831070862899445e-06, -8.44803256449639e-05, -0.009426499395224198, -0.05048252482197217, -0.04413355086435359, -0.07903684442680738, -0.0526304372057946, -0.12147941662454373, -0.04658059122934084, -0.04337396490840531, -0.06385953651753394, -0.09321067493358186, -0.16316737207132342, -0.10165353165712672, -0.10137562987115208, -0.11359226104254817, -0.10894487281349746, -0.13442552854641635, -0.1421832373998627, -0.10211994085157247, -0.03156223002063104, -0.004451478755704809, 0.04454246512747716, 0.04718380980463847, 0.06771508214529766, 0.01165556220658654, 0.018216087646901767, 0.0011416737135696335, 1.0392943476087036e-05, -2.5098634332988327e-05, -1.4172232709450995e-05, -1.3546239528393663e-05, -7.942184343081416e-05, -0.001592367322646143, -0.003659974682822271, -0.07559332098093761, -0.07641580628916658, -0.08126073006942164, -0.11793305151713358, -0.08787728164927312, -0.047718460785189605, -0.07185807609416915, -0.09990828486636422, -0.10281976251912081, -0.08967861394478088, -0.11538074258350992, -0.1388148096582544, -0.18266742347754247, -0.11934238842178058, -0.20717680154644774, -0.09973541381792336, -0.08117278964686828, -0.022132781973137148, 0.023072602838674797, 0.06397851657454708, 0.046052471495148704, 0.07059859493088459, 0.021847479550784095, 0.03227707849356114, -0.003720801445751471, 2.9062438283055692e-06, -2.8227014097995292e-05, -1.9734154570442694e-07, 2.131507298454196e-05, -5.735284841222263e-05, -0.009513861922380884, -0.04399311277111843, -0.09781567308810821, -0.08352717736038136, -0.11587754563311058, -0.037764143577101755, -0.03513836378209142, -0.04828859229316681, -0.01037920457263212, -0.07589250007252793, -0.0634487740496255, -0.0706978344008717, -0.0993454866550311, -0.10636852307349987, -0.10413979283113775, -0.16228771161046868, -0.14838013186108712, -0.0634051242610388, -0.04472334862617583, 0.015034204802341595, 0.054980501543007036, 0.05220242320505853, 0.055962867234108093, 0.06876600019388987, 0.012021025327043385, -0.0023280654246877253, 0.0012605928459508426, -1.0511610939667765e-05, 1.6015195805590202e-05, 4.371903696449981e-06, -9.419372638377907e-06, -0.00010716356056282945, -0.01187864859081513, -0.024741659846476926, -0.08043288792658161, -0.07867358789379378, -0.05558846885951901, -0.033451264922638876, -0.007492464111087818, 0.0025291758328559646, -0.04924440380178082, -0.042444049763388676, -0.042136358915864945, -0.011407197791676139, -0.07364208015466145, -0.09056833170790471, -0.18359817085513291, -0.11842355202366071, -0.15471877394093395, -0.13400929616864293, -0.037297999065122836, 0.024095583100133496, 0.051817736555497325, 0.050458200731905246, 0.024282939206970975, 0.03148938217859249, -0.005954597238838999, -0.0035705961738756106, 0.0012828713089528118, 2.6874159642200217e-06, -2.050771377362462e-05, -2.889370999958108e-05, -1.5772899831697924e-05, -3.4130707018256854e-08, -0.02322409243028762, -0.08106310580310594, -0.08068275059012406, -0.039497262629817356, 0.026162291410584383, 0.03141957221285478, -0.026683586851700906, 0.054250015369399954, -0.001767227757195526, -0.03406647757463258, 0.02683221707124422, 0.00030540478176335447, -0.10436685442926955, -0.1281140676208487, -0.10983727977541538, -0.11152839238208032, -0.13573521789899554, -0.12052950763625737, -0.08421528804904115, 0.016549558607445135, 0.06489177670382026, 0.026352538581999204, 0.04433077092401809, 0.022562309667685777, -0.011478435738594075, 0.0013958440139295197, -1.6682919141310345e-05, -8.467432729449311e-06, 1.1251925414913627e-05, -9.822065151387195e-06, 8.409819531402616e-05, -0.001524199083644284, -0.06819533527333085, -0.0757648398956606, -0.08668441313940475, -0.030262621831827614, 0.06260442993782171, 0.006920855635103348, 0.07586411684322292, 0.0952865301957984, 0.027050024987393912, 0.07742381442789656, -0.001841424404549898, -0.003869471599309074, -0.11115231880140847, -0.11046969531511702, -0.08852195415453999, -0.082846685356472, -0.07855563098795021, -0.10296064392742986, -0.0666937335418295, -0.041182824373312665, 0.05438534848446797, 0.03168837748142109, 0.01644105105622127, -0.004227952052436743, -0.0016446101361331999, -5.296301573896145e-06, 1.270668652754841e-05, -3.2873406686348194e-05, 1.1972081614828782e-05, -7.878855033558543e-06, -0.0009733073668230409, -0.004282802590058656, -0.058821840599925894, -0.09788325427204178, -0.07597176673629805, 0.04572100846540848, 0.057594029922269654, 0.04180574922271083, 0.08135878341016357, 0.0978196248188943, 0.06960318385891709, 0.03132474708708028, -0.03208162147526623, -0.038825237993596926, -0.08889714337670564, -0.02679417346118792, -0.07377371180541539, -0.06435732128053523, -0.14008648267369267, -0.08780806755939112, -0.03413860665882861, -0.025693501491533936, -0.004735864201182366, -0.011110775752941391, 0.02619882370869216, 0.006660791499474077, 0.0014109477747240957, 7.145404993738359e-06, 1.1347399883043834e-05, 5.4152818195735945e-06, 1.572384513101888e-05, 9.199204152261035e-05, -0.00020014336093526064, -0.0010745361221592864, -0.02419856775848181, -0.10632977571587235, 0.014104486915617224, 0.053643292957712044, 0.07409543456126219, 0.04779288084133661, 0.10855197119611544, 0.08031310234105248, 0.011909293569658275, -0.018476797005973142, 0.031319818694610035, -0.074000324207286, -0.07542276929694425, -0.07839708057274847, -0.06036442649238393, -0.06391605431978346, -0.12608266796035475, -0.08570524509065075, -0.03495215185309228, -0.05913398712596277, -0.05343490122708342, -0.0263440565236036, 0.023598951358919488, 0.0025476057431745996, 0.004800296612949465, 2.1333479242565432e-05, 5.234932831700359e-06, -1.8327711962860245e-05, 1.3024269772836199e-05, 1.0754245668845017e-05, -0.00020850746239252913, -0.003934398977635968, -0.02493816226865868, -0.02647207430744344, -0.03581503266517981, 0.06928935209662315, 0.029344166299926974, 0.05040661396054891, 0.10274508438000292, 0.08190141723732128, 0.05160288572371513, 0.08121708454584588, 0.005588980352607835, -0.06328187124159149, -0.025582815209423716, -0.01954170248229567, -0.04703203796525574, -0.10933183476782432, -0.09544759621571389, -0.0898933165051058, -0.06263160634688879, -0.05635100667046918, -0.020396979437046436, -0.03042563184132669, 0.013083948869670646, 0.004733570586791015, 7.989940859635766e-06, 9.254451396978979e-06, 3.5892282457611194e-06, -1.1892650411298789e-06, 1.1640217603852902e-05, 7.18981786339106e-06, 6.730799524230396e-05, -0.005771306095950339, -0.011591559849224017, -0.040825517200536524, 0.04858428133443927, 0.02403958676167862, 0.048493735737716835, 0.061161870318762405, 0.03742512218029153, 0.049223971426005236, 0.10463537242241785, -0.0002798978406545828, 0.020289443357181438, 0.0038017485503416167, 0.007703590051973081, -0.03715144050049775, -0.005825999235330215, -0.09413483417681912, -0.08195234449717041, -0.05691855279791508, -0.07343050084382782, -0.05179186180423142, 0.010800837578852111, 0.020364880005282682, 0.02726290844119639, 0.003577796375816174, 8.44646467702902e-06, -1.1368441107343942e-05, -1.3675157513165368e-05, 6.253001314023895e-07, -1.353730884550539e-05, 1.832991855951177e-05, -0.0007655799938161742, -0.007830980056418984, 0.012032926182801626, 0.04508153107772223, 0.11084388355763448, 0.03296208246088733, 0.0404034699451391, 0.030045833503849467, 0.04157158279456985, 0.031892229114888655, 0.050267827267130694, 0.08017982356833421, 0.04621349206961151, 0.016974300633652968, -0.009761599656036424, -0.007342641377245156, 0.021557556943155753, -0.07047397457970728, -0.04226030739397448, -0.039417406668396396, -0.11120199296628627, -0.07906405628086727, 0.026867073988167386, 0.12226599054174256, 0.07428395277965305, 5.131861500515525e-07, 4.122442470358981e-07, -1.2554454853651284e-06, 4.9497007552118226e-08, 5.196260114557608e-05, 7.761706742691304e-06, -5.332040819403748e-07, 1.4571995983421996e-05, -0.00972632635064496, 0.025637744930102343, 0.005774916655916377, -0.008123993846672417, 0.07744208223925944, 0.03233399523473012, 0.09539041512051029, 0.04280434490137964, 0.10251166997007342, 0.07765918020966824, 0.07026090253524309, 0.041950238756645365, 0.04709178916592292, 9.327221806307096e-05, 0.02379767893178849, 0.005394374708121929, -0.05912004956808918, -0.02568265502512118, -0.002110302818856306, -0.032693247712900976, -0.02153221786771643, 0.08053067245534716, 0.09705000743516247, 0.05544785206416717, -3.47673476850214e-05, -8.856696822129754e-06, -1.1470006288418344e-05, 2.8677178565708674e-05, -4.2757391933541425e-05, -1.7695786493788535e-05, -2.3288846632693844e-05, -8.914494950517163e-07, -0.0007580286756300539, 0.041916344156241576, 0.049328018881383516, 0.04126869438740664, 0.0597402172409366, 0.09867117974156754, 0.07877240062837457, 0.04315307585687144, 0.08930056596982608, 0.017830157964681438, 0.06656685602950317, 0.010725622445232784, 0.03381500423141949, 0.06618725508412704, 0.020286640766691982, 0.029653596487884213, -0.01668260447134641, 0.019590777936945147, 0.034293841333396406, 0.002517006405570377, -0.002159191432994285, 0.06826854469830239, 0.07673371007930582, -0.00047042165558744783, 2.0957512502174145e-05, -5.391975301700478e-06, 1.0819668460509297e-05, 2.527453615846399e-05, -6.883588587350003e-06, 1.2424350456348778e-05, -2.128281328666104e-06, -9.104250523028178e-06, -3.377184393871789e-05, 0.079068566534459, 0.04760903807370462, 0.03993901621222677, 0.07646188779963883, 0.0831435987188457, 0.14272489558706117, 0.059498604388936255, 0.09051069632237856, 0.0475817578109736, 0.04297914662073992, 0.05621292068792924, 0.07490811273897163, -0.0010853013744889562, 0.02756373500355153, 0.02579939097972702, 0.023500162610021438, 0.04738204250735421, 0.027004097897090087, 0.022244894103989582, 0.07085599545221018, 0.09172347570469055, 0.004364541842631037, 3.760109078500581e-05, -1.8287483227791267e-05, -1.4399909677948351e-05, 1.651750050798175e-07, 6.650674533032553e-06, 1.164670759490681e-06, 2.398685939385083e-05, 8.711944993470652e-06, 2.829032937464657e-05, 0.000997861422232886, 0.04772493343264628, 0.03854066688716828, 0.07852345230557001, 0.04459663652041016, 0.029316193503934284, 0.015057919455507713, 0.035883647990752957, 0.011058925553962241, 0.016760023780038144, 0.057402545138893375, 0.04589579216064208, -0.0258357255571615, 0.010883907534836368, 0.11120697586884241, 0.055628662525233054, 0.12383093206243657, 0.06042268779896485, 0.03210008622381002, 0.01024622264044402, 0.035563575826293874, 0.07197459432773247, 0.016542539876576442, -2.9734569106401538e-05, 2.7284660940722107e-06, 5.769268949984198e-06, -2.0299446109934577e-05, 8.399050994940147e-06, -2.2240695436527664e-05, 2.143223047090188e-05, -1.614663886594571e-05, 3.275802139145964e-05, 0.0018941652245259171, 0.06413749254667127, 0.024471306194207166, 0.05004706397356615, 0.03631904731779333, 0.04226723292018844, 0.02409078137517827, -0.005828670615692382, -0.03611052745058756, 0.006585347668839532, 0.04533059973366011, 0.04336433259664693, 0.04676192406807034, 0.058201238346749014, 0.062231934233235996, 0.1254361197854478, 0.0966457444754587, 0.04767827907764237, 0.024854188879968, 0.01526164214455647, -0.007131641239609362, 0.0004546292530156936, 0.06608913252255846, 0.000826038403593844, 3.956392125698113e-06, -1.0098231196770381e-05, 4.328235298886218e-06, 6.947888332113128e-06, 1.2412650617927474e-05, 2.4140179425523293e-05, 1.0097373048387677e-05, 0.0010920659745816835, 0.017000226163105085, 0.06012366012828748, 0.07412581361234076, 0.002031271513735389, 0.062037082121890526, 0.08035920904969075, 0.022046109282671155, 0.0015767629535245204, 0.012462899906294077, 0.038072025181159055, 0.04697532838363876, 0.008226205808727403, -0.03778725627764818, 0.02471344385844288, 0.09018092343668954, 0.06704521868735079, 0.04871568901849261, -0.010664929366369898, 0.022940602626511, 0.05540910526970351, 0.05623012068664854, 0.03969115271027694, 0.01477449112962218, 0.001821645306855045, -2.816819164495013e-05, 4.5226197205691545e-05, -4.2892720459576826e-05, -1.6197926613978002e-05, -6.222695062577157e-06, 6.251321624455941e-06, 1.5828652504218427e-05, 0.0011845837621719856, 0.008751020712006053, 0.03947838198056576, 0.058818587276157575, 0.11880158892748818, 0.0297345759500772, 0.0161081949024876, 0.024324248717898074, 0.0834376563428705, 0.06935194276983889, 0.04011540692371412, 0.023993163467024955, 0.05467268537021355, -0.003247022678491425, 0.06515260640088862, 0.06074783495921728, 0.05723320311162453, 0.06919172473110545, -0.03301308272654807, 0.01210794964118712, 0.06433432642754718, 0.03552517026098819, 0.023774131038881395, -0.018974554938935132, 0.0015856927950010835, 0.0008273638272832208, -1.0988406600874227e-05, 4.822576818211191e-07, -1.2937351348158097e-05, 3.7252802437568465e-06, -1.2201645660933856e-05, 0.001021673799580132, 0.014023007262837874, 0.022996788274953092, 0.046907048226539766, 0.04827694703105532, 0.03457704001629162, 0.03648680053655762, 0.029899815049189128, 0.04354379369676477, 0.04256525721187084, 0.07747308774098703, 0.04080108887010455, 0.11913055433627659, 0.06738891977414463, 0.07476694306431161, 0.06295567037224271, 0.04610365151302462, 0.021776370062764772, 0.019570648290393768, 0.024289462000431396, 0.09100647330299295, -0.007092539529341491, 0.029362461056209523, 0.003775684761654772, 0.012084107564632608, 0.02340369937213349, 0.002626221654047457, 4.576755902157914e-06, 5.695362436325756e-07, -2.0749492571793373e-06, 8.977735093881543e-07, -9.175228765214101e-06, 0.00010506819636890907, 0.021215163052350255, 0.03044165112447856, 0.046638336552957564, 0.029210222668872143, 0.040128978701798525, 0.05392927047220234, 0.017271262332757803, 0.05554056141540508, 0.027252621675602308, 0.09575424257410088, 0.11274298941582002, 0.13085979222764413, 0.10557625361415479, 0.09494450004657612, 0.03580105498876021, 0.07371741093453989, 0.0055484591792585945, -0.005185476185981865, 0.015680311214895538, 0.029827629619210868, -0.008623561107507666, 0.028030213204933135, 0.021815182109038975, 0.045245088566900876, 0.030506989460186946, 0.0003267416059909561, 4.389674379767556e-05, 3.1218564599682733e-06, -1.1894807328870868e-05, 1.2507761662728972e-05, 1.728060990426793e-05, 0.003876364815368289, 0.012955279770863477, 0.030823334797837415, 0.057364035952133186, 0.05612621785400277, -0.005357266667688199, 0.0799119490264005, 0.05653973269470136, 0.015751727639237677, 0.014543592412426523, 0.06432743522351898, 0.08967927646940335, 0.13821494667559, 0.12039007676883462, 0.06776284547237557, 0.05519846342824043, 0.062140864268266933, -0.011326179851421463, -0.05693255156172133, 0.007749410970228417, 0.024743883236355346, 0.05175464507727094, 0.021469273996638994, 0.009118442044334995, 0.03279422747454408, 0.0018183267370717054, 0.00684638559835473, 0.0018475253538371243, 1.3212277385946357e-05, -1.3496414698015932e-05, 3.866573917975887e-06, 3.746275180072134e-05, 0.0011741108938537507, 0.011943370543981245, 0.02709391260094254, 0.04869373473281379, 0.041051536582114335, -0.005115238618867528, 0.006718908045488165, 0.053527441304341894, 0.08650745188156651, 0.024976660026406135, 0.05907650976357337, 0.07210395339653466, 0.062311581324469054, 0.07276634355302664, 0.0627122756654344, 0.02521691555329766, 0.025569914250975576, -0.033576789157413515, -0.009454355303705609, -0.06542131796217183, -0.010615190892278137, 0.002399909092607433, 0.05857431836531302, 0.09581166172176425, 0.03140116401699495, 0.01313421942885857, 0.013691102413050353, 0.0031811051342329625, 4.049179542956349e-05, -2.2146152728130843e-05, -4.0307099316291015e-06, 0.00033459607587222646, 0.0003390830903768913, 0.005568472049606846, 0.014927072612551842, 0.034208182200975726, 0.031966620339058095, -0.030632885599173338, -0.07772096694488147, 0.023684006315204904, 0.052048173910501164, 0.06129072684730776, 0.05923190931280572, 0.0383161794822803, 0.024512098554488142, 0.010921637088580884, -0.016752438887982873, -0.013895730569136696, -0.05319645383983678, -0.04647286046155158, -0.03434621232583616, -0.021831226075174372, -0.03886205121342383, 0.025346430464455432, 0.052620221546265916, 0.06911361101931135, 0.03629195262101342, 0.0011386639329291402, 0.011465773657989132, 0.0015952598042411651, 6.682432042942854e-05, 7.822442964444366e-06, 2.6479553182677882e-05, 0.0003042993958992509, 0.000355255543048972, 0.00035181841462185285, 0.003639509268905844, 0.020130128699920823, 0.005925263984962606, -0.040466467726020666, -0.06900816635715162, -0.018075114951258957, -0.019028376874759733, 0.003806893779534598, 0.015447857929912809, 0.05316431616725995, 0.02421781385116961, -0.014452438045092234, -0.08953070390690272, -0.006055666789104771, -0.04563908839765819, -0.03501951763600456, -0.04415953544046102, -0.046932242461012616, -0.03801017204776478, 0.010583924488563943, 0.03871445607020439, 0.08162751598608273, 0.0071764141480333814, -0.005063000349406741, 0.010972633262866332, -0.0014293048084667841, 9.211083544152545e-05, 1.1954474131169734e-05, 9.506148025090268e-06, 2.6481460844162692e-05, 0.0003730119861881901, 0.01232469494638528, 0.012320801205550045, 0.012600934531153301, -0.014806796406699126, 0.016378813363856944, -0.02513022239927944, -0.05166435841736582, -0.011746061195662167, -0.05987257838330805, -0.029629467936831504, 0.006459965308781343, -0.045728455014459775, -0.068456327811918, -0.0020162755286835467, 0.017964686335210308, -0.019734112346890875, -0.029958396614248727, -0.0647077933834404, -0.054189223033652006, -0.014604849620235224, -0.0014602038521033989, 0.008828340090814698, 0.044263189971172845, 0.04319034762864198, 0.011595333339502413, 0.007227927676586902, -0.004770809522591128, -0.0036421448069537234, 1.429779566202565e-05, -7.218125525003622e-06, 1.976114020252366e-06, -4.796703483515501e-06, -1.7122041641036698e-05, 0.011976472903712093, 0.01125951537602395, -0.009935998068722683, 0.022285032097246055, -0.03239683840235682, -0.04409148327990881, -0.05151457258007843, -0.08823496072167165, -0.059670492156987054, 0.0015365073537614872, -0.06344337904919649, -0.08327997504065301, -0.03644085715083754, -0.002762167176243581, -0.05578298081311582, 0.0012869424815287773, -0.042985611167363075, -0.040657940626637724, 0.012095458823874087, -0.007653851686595068, 4.3539174633241086e-05, 0.025021099135615697, 0.028894526428109975, 0.044066190856072225, -0.004152540467251061, -0.0014145563066902576, -0.005252798396816635, -7.156930294171726e-05, 8.893638787301457e-06, 2.281791200916711e-05, -1.1746779859367355e-05, -7.191344876467507e-06, -2.1687470399222417e-05, -1.7029037073304837e-05, -0.0041000312417384735, -0.03553458417344851, -0.0024180273213279028, -0.05122823379953062, -0.05787667913313881, -0.11063694754185578, -0.06752109311941173, -0.14116332561343373, -0.1039569536037713, -0.16336056360323792, -0.11182144460417952, -0.026726502866660673, -0.023635341500358432, -0.019273786255289548, 0.004447072345604107, 0.03421008928190072, 0.06256244667366549, 0.023444611976328623, -0.023681415771186612, 0.005332598678597153, 0.04770604137888, 0.04867254052177266, -0.005818982949899098, -0.002772261004366727, -0.005138604941340958, -0.0017012426345639398, 1.0674750071669953e-06, 1.5286650164925803e-05, 2.504309183628761e-05, -2.740113748211588e-05, -7.712908823738381e-06, 1.5068776779134515e-05, -0.0024231522579246717, -0.01140278310595714, 0.01302871494017626, -0.025902654902275633, -0.016036571867161495, -0.02588883232018893, -0.056670222791705624, -0.08043018056293609, -0.10288081762322299, -0.0950341805071186, -0.019590481046804723, -0.05618381719795278, -0.07320907828901987, 0.05232960879956197, 0.036660665789089365, 0.06480252003889232, 0.04180196130001654, 0.03549374011844529, -0.0036649912773755607, 0.016517623121886284, 0.03141045684038027, 0.04128311927280285, -0.006756856133500096, -0.0029503755263247614, -0.004524394786694678, -0.001998295415587819, -5.858498606854885e-06, -1.8901160926133683e-05, -1.8150437004955216e-06, -8.68535975834871e-06, 1.8720799818677794e-05, -4.999269781212021e-06, -7.267459062136261e-05, -0.0005099808375575225, 0.030225916350950746, 0.021082990436157006, 0.0044965941118177985, 0.016931291694339958, -0.04455698928685506, -0.06792524479076878, -0.0511542885487249, -0.04171686462867251, -0.006058059344417744, 0.07775843877691307, 0.007454182813248627, 0.10850141554679346, 0.08725865404885119, 0.01834494524608193, 0.04532857427403639, 0.02735378308519245, 0.03394646631383377, 0.048618843357093836, 0.044488118214972686, -0.008304625119137845, -0.00232906683595777, -0.004625369743299667, -0.0035940970708646406, -0.0017304641093649536], [-1.4619973787239884e-05, -2.4382036073430685e-05, 4.545072609992427e-05, -2.664009331564366e-05, -2.4657961894203738e-05, -3.177234489102934e-05, 2.48738211195292e-05, 0.004372816612386491, 0.017508955297123648, 0.04626650850226959, 0.06022467018343082, 0.09996284398928384, 0.07040956521029888, -0.05413700237784752, -0.0169742278743535, 0.08390531179748101, 0.08191385021629956, 0.0785529097540245, 0.1526046669522555, 0.19753493885334525, 0.11796586246068168, 0.020214020308229597, 0.07009739686163778, 0.019685705620096586, -0.010642350043705924, 0.022963514304804877, 0.011920356834963718, 0.01582568039629606, 0.014057711287075626, -0.002226893486093338, 0.0012106456913286258, 0.003063940952407581, -2.189184108958724e-05, -4.091549397536035e-05, -3.0851872247981002e-06, 2.3287602671900462e-05, -9.489877735029885e-06, -3.319330001963168e-05, -0.005538429787017552, 0.02863616756308978, 0.04215053539204074, 0.057262072544264415, 0.07458430069088678, -0.00646261831994734, -0.10040977452919037, -0.0972976936532751, -0.04709107063798145, -0.0014889648686512865, -0.03350303776518387, -0.06830002789777916, 0.08187636605522071, 0.060982605852129716, -0.03189285354440725, -8.963557987279623e-05, -0.06354400540672699, 0.027330906956638378, 0.00110787430223663, 0.016807938429356205, 0.028623249980950026, 0.02269446084884719, 0.03580114902179933, 0.02331972187307112, 0.004086820115364532, 0.003080077697469676, -1.8814169439053337e-05, 4.2833571284139435e-05, 1.2087473915969075e-06, 2.0956338095411457e-05, 7.376479698550245e-06, -0.006909540910347568, 0.019891142142942148, 0.025437718431211828, 0.07541027036949581, -0.0037107453394897008, 0.027815337033964445, -0.07221946336791356, -0.08399039966044629, -0.06562641151118823, -0.044867404673651086, 0.027016251520161842, 0.027993365043002698, -0.024193659970102168, -0.05060908647370242, -0.02526411838614531, -0.005039447552317012, -0.02784904422230162, -0.010505621626313768, 0.017112894468461714, 0.034195311901346157, 0.04786243225109246, 0.03625328435671221, 0.05446970607138914, 0.02166839304270115, 0.02250551354082295, 0.018366552468984953, 0.0032573658286165117, -3.315731698339338e-05, -2.525343508979737e-05, 7.550693375732806e-06, -4.043111210801725e-05, 2.603963884598676e-05, -0.011794183377169452, 0.024995170110819528, 0.0006554085969149032, 0.14829936120044035, 0.0747747803830912, -0.002286814503232386, -0.11263612716527446, -0.05332097545981034, 0.003041201981198892, 0.021171912000142935, 0.055252130405722515, -0.003031608657870607, -0.01633167807470211, -0.04735265536911457, -0.12092089137964346, -0.19290580416127598, -0.11229764281547178, -0.08221674308558873, -0.024451270084708942, -0.022320230898688915, 0.02676330021527979, 0.10599624694979502, 0.09047787653767786, 0.04715053466765012, 0.01757882288518739, 0.025727519366706655, 0.003254473591020083, 3.862291382136207e-06, 3.984243411572758e-06, 1.812396761353682e-05, -1.9991993924981805e-06, -0.0016489331444180845, -0.029527953781248957, -0.00964795344810663, 0.00793100382362639, 0.14141099300450058, 0.02221364991459356, -0.05931732403823342, -0.0427730246994079, -0.015122563348119733, 0.003153241881184046, 0.0040002610605164805, 0.06737645707715563, 0.07583741342626914, 0.052631586669106785, -0.03177993330305084, -0.15905355188697134, -0.21953621035283824, -0.21194491090660647, -0.08683530134493797, -0.006781108214461893, -0.020251433758411052, 0.022684235093556965, 0.0858021447618611, 0.08251311058731363, 0.05148789687047103, 0.02289649653080587, 0.03968705769412702, 0.004048689754499437, -1.7489478785978775e-06, -1.768081540762355e-05, 1.9063710669142207e-05, 7.635282210243153e-06, -0.013420829201808166, -0.05130057091464453, -0.030220404870123833, 0.08187791990916334, 0.08850574741827102, 0.06458021568652937, 0.030843957086458956, 0.021098565083959065, 0.013441613648739258, 0.06010404126247672, 0.0292838421049547, 0.07793743723448111, 0.14047880198993754, 0.0635614765404591, -0.01380460097851767, -0.10376203266310881, -0.1681708650312069, -0.15202559638714302, -0.009663108599429029, -0.019363326892968765, -0.012989605264574457, 0.017476762165491218, 0.0355864752555385, 0.056645636228200784, 0.04498965938002218, 0.018818584936253425, 0.0058564510126943034, 0.0030259992869989738, 8.14286054610473e-06, 4.776269203755566e-07, 2.8835486661338593e-06, 1.548859745979385e-05, -0.015007859710618597, -0.02698769217130153, 0.08154307196165579, 0.1066123011859479, 0.05820304963704434, 0.051440893428462406, -0.012570218681641506, 0.05445249355483179, 0.045807527812230964, 0.08438492132134891, 0.06207025274896619, 0.05767050705412289, 0.06477708930315747, -0.06677215731206634, -0.04184903469903625, -0.1404042747125694, -0.11746566393778904, -0.1640636843156276, -0.1283461008180102, -0.027330662373238796, -0.04071168642132195, 0.05771598488559995, 0.0655071115870309, 0.028114809430580947, 0.0355361788757415, 0.0071877309238655195, 0.004201243988079165, 0.003052607043531158, -4.523147874201063e-07, -1.2441258449612487e-07, -9.75681710719395e-06, 3.389077662436747e-05, -0.0032187718703624727, -0.051333549228028866, 0.03820597729568358, 0.06768433400539121, 0.03177192173338839, 0.04749355378231301, 0.005888567927883553, -0.07233625172238926, 0.03582104028585784, -0.013264210934643842, -0.030311609089180052, -0.010307175723143536, -0.04908279572622365, -0.04589617898452492, -0.09938633453886643, -0.09714873812379494, -0.10599378263670567, -0.02147099545526574, -0.11503116117517467, -0.08718479127001824, -0.03462423254901045, 0.08035651957980662, 0.04096112455650567, 0.056760428696166036, 0.044624539045937134, 0.015098261429220336, 0.0037927269988720894, 5.204237582876119e-06, 4.087766097607408e-05, 3.0147125844575596e-06, 1.3223349606759456e-05, -0.0003569772821497328, -0.020535023684105477, -0.010772825717729721, 0.00874196243671467, -0.07743308563034572, -0.000510881009048414, 0.034023940901945195, 0.0019695854010228953, -0.07727313186307659, -0.10958900073240145, -0.1876713881731313, -0.11066375314268494, -0.12743044043480042, -0.10442100353448451, -0.07840200924513246, -0.06338893138771404, -0.10707858171085889, -0.0063373583097768756, -0.038386284961916005, -0.07279526728971455, -0.04264565742463567, -0.07918178843106646, 0.048315957697463274, 0.05664317343193543, 0.017946453354787468, 0.02422837364693512, 0.019925100579684094, 1.1778868981403326e-05, -1.2843147918764011e-05, 3.2901721959519954e-05, 1.025228206467137e-05, -9.929888727907763e-07, -0.0033558477344880185, -0.02035907834784959, -0.08162101169911655, -0.028600026039873865, -0.12119295416546391, 0.03364875099109769, -0.07126750389290182, -0.12458869291253442, -0.1437717701837069, -0.1812139998388619, -0.18848669543349025, -0.11150338501263957, -0.2571879348899894, -0.09464410312209076, -0.050184334521537644, -0.05012258515631675, -0.023773100728846384, 0.014433950229313382, -0.06879616817654984, -0.07866433111933284, -0.022722904531429805, -0.0907749420839508, 0.04831218557248521, -0.008485913021233027, 0.04661771008098936, 0.032009329992646676, 0.015309744897935138, 4.3349403058905196e-05, 6.689046290717866e-06, 1.2767638659089411e-05, -1.263098589890673e-06, -0.00033839958920040155, -0.00046700556532895275, -0.04919050267382518, -0.007180298517432189, -0.06502346231328997, -0.09142467279802893, -0.043468801313705056, -0.07792870682734333, -0.16365634613994334, -0.13018077432251776, -0.16962094496238797, -0.1459309234724386, -0.0914863479306786, -0.103807442927988, -0.14191171784298134, -0.022192946775044294, -0.0006975900794950508, 0.005958144605106309, -0.008805302465630115, -0.05454965449127375, -0.06308122392300747, -0.030885459847051096, -0.0717508905488816, -0.011651942977142024, 0.046162984531432256, 0.04994932153242833, 0.016557508925730723, 0.010996146106882789, 1.5914437260524843e-05, 1.1207428436722026e-05, 1.5689276011986048e-05, 2.1513804410216625e-05, 1.4024690002622067e-05, -0.0004785654694929252, -0.03887271329597655, 0.032340526626733306, -0.038099126773895216, -0.07858554504106618, -0.00620120078103095, -0.10813584814533395, -0.14884952458484557, -0.11448286346301317, -0.13907862150811642, -0.11919471414718588, -0.07515386929065307, -0.11672206794006594, -0.1698728854871232, -0.08793874145166505, 0.007526036237199251, -0.012239209160751455, -0.08727188558001853, -0.057346263751815216, -0.005595859737772901, -0.03472317306582921, -0.005706119245512788, -0.011573802135445049, 0.03017238565076055, 0.07944564221370974, 0.013997337747314082, -2.194756968468979e-05, 4.1529067464602455e-05, -1.4458383582374075e-05, -8.865361984749032e-06, 6.450221101821893e-07, -1.9045715829311626e-05, -0.000351842626135057, -0.0006120589483333514, -0.058421769037749795, -0.0772023381900825, 0.009138453420920028, -0.006934105895534658, -0.09996026050618055, -0.1328937313078013, -0.10683231208295689, -0.14572022425575235, -0.05795836713085477, -0.14176202494012394, -0.09819807090846931, -0.14780389331896188, -0.07384469656624536, -0.049131121757421375, -0.007234180286933726, -0.07540693465028492, 0.012588876325661778, -0.06288666350082972, -0.017828509716120794, -0.020734650863836097, 0.05823645963493851, 0.096588662067564, 0.1001579659286967, 0.008027575229839011, -8.481089784591212e-06, -1.6007835568044176e-05, 4.753567726810168e-06, -2.1554993866069112e-05, -1.2010466928651834e-05, 1.6452574772752922e-06, -0.0005801534330547357, -0.0010353500515684845, 0.022611306783999634, -0.095055615785409, 0.01525323825401015, -0.09701780352254312, -0.0923179044422699, -0.11147013979748852, -0.06772544596005114, -0.10760955598635996, -0.11479551203845269, -0.09436746323501354, -0.08421580400587722, -0.15914208136500482, -0.0985622673633728, -0.03509612099616439, 0.0308135813727298, 0.052716743071045534, 0.015568079872872578, -0.03411405737856498, -0.052739887130625926, -0.02243351535393829, 0.09784753359419891, 0.156300477668236, 0.11765738613623943, -2.7849802256622283e-05, 1.0362259697171408e-05, 3.558136152755207e-05, 1.2980634905815782e-05, 1.1502162507676518e-05, -2.193919165258032e-05, -3.426371216708246e-05, 2.6682227997498325e-05, -0.0011532998848587858, -0.023620990929885604, -0.0775523655932429, -0.06277460052501685, -0.040859118192086104, -0.0868275916022416, -0.00772625678219923, -0.07558924416187726, 0.01102039782956745, -0.012360794694811496, -0.09279418507398039, -0.11174170840232066, -0.11928463155470706, -0.026064248766843764, 0.019976070586527298, 0.02892530785741688, 0.031082719288532637, 0.043017645557653, 0.014586532388264423, 0.058798508421951716, 0.07360526941813395, 0.09675743509493369, 0.15788481388276085, 0.08015899210028626, -7.796315052384891e-06, -5.014756292590726e-06, -3.245791524319861e-05, 1.8105563291163104e-05, 3.7379363926865256e-05, 1.078486868415302e-05, 2.173104143345918e-06, 3.801705457071314e-05, -0.0006304815082373484, 0.030339881732284843, 0.010315662316830223, -0.03336634545068479, 0.01845116240104732, 0.026406767937921318, -0.002913700152285872, -0.03418162362138573, 0.06685509800249431, -0.05982980583862139, -0.08511439972627748, -0.09809955842268721, -0.05474996659190203, 0.013197565120891616, 0.04349253431289251, 0.06376193740589042, -0.0002539888255050387, 0.07405747012569518, 0.07612407458750031, 0.029111887037784997, -0.016132389355143547, 0.18113621246873723, 0.1357048545136876, 0.00046582195593600955, -1.024625794622753e-05, -2.938977803370183e-06, -2.1558245298426502e-05, 1.3929074559598463e-05, 6.563259208286025e-06, -3.046608960397497e-05, -1.648947606205037e-05, -4.484794916227144e-06, -3.54054929042933e-05, 0.06390608110240946, 0.017202316939141697, 0.039645468664506564, -0.004046597664556334, -0.04659881698172406, 0.11351899589856536, 0.014467164279678271, -0.012796734969627976, -0.015864329303058387, -0.012494203851992661, -0.003675451461717851, 0.0037346653378368816, 0.0066107609372882134, 0.09283247223795059, 0.12078462448401961, 0.06973837154552734, 0.08400060395486227, 0.1035628788749354, 0.045664655873141086, 0.08843716046138413, 0.15251295290810732, 0.09397042818061926, -2.342398742431311e-05, -2.108802711908481e-05, 1.9270924699486582e-05, 7.65828355755264e-06, -1.6009018172492278e-05, -1.648437414340638e-05, -1.0769857748334494e-05, -1.98750077833223e-05, -1.6458088360567243e-05, 0.0008353390024923113, 0.03556414441125439, 0.051749920177941826, 0.09002040240863494, 0.009717127641945739, -0.06680323777914907, -0.020036564375166686, 0.017327152049460694, -0.045686433757913, -0.015100106963245293, 0.03779501004044328, 0.022777890199101654, -0.030371383610229192, 0.06889793035846539, 0.10886184449143398, 0.11433549362343386, 0.135955955179862, 0.08131600239141039, 0.07426339586807414, 0.06105615537346662, 0.059280088981595445, 0.11350423900432864, 0.12632237952929948, -2.32820351043321e-05, -2.0053548570354722e-05, 3.50547718645613e-06, -3.952143195617254e-06, 8.511259073547524e-06, 2.355639211717809e-05, -1.2037993009775653e-05, 7.642977687842586e-06, 9.13418732071521e-06, 0.007610382612716404, 0.11005398448747271, 0.062284814898364196, 0.09402480273250734, 0.037165011920969424, -0.008343112353459844, 0.014746606912445299, 0.08468359499214773, -0.014278794225561033, 0.05074105466331171, 0.08543796187520739, 0.09233979725902039, 0.0607631267778267, 0.09041414729294675, 0.07298027600698473, 0.07769567068150997, 0.14353208283941232, 0.1382067364022665, 0.1157927929506185, 0.026249550573451727, 0.023785515437867406, -0.01066746200605045, 0.028851151254348735, 0.0002822366668196423, 7.580603047016363e-06, -2.8215087926827877e-05, 1.1811347713852419e-05, -4.62737228083846e-06, -1.7442350943494343e-06, -3.9289757014605554e-07, 3.3649067644743894e-05, 0.0009304389414994003, 0.02475250238718646, 0.12059314189537186, 0.09795484375504365, 0.04540611973244352, 0.05715476315635486, 0.013876464547093563, 0.0760781070642961, 0.07382464244033266, 0.06678701268810368, 0.02276742828017522, 0.11789875637142937, 0.03499069784418211, 0.014082620014559719, 0.05324766765861514, 0.06707582954427281, 0.06335472449130973, 0.10186149942623725, 0.020006018550872376, 0.04377671959737007, -0.011673638353613429, 0.04717799974803165, -0.00753447285014668, -0.024545632027492506, 0.008258440236117858, -2.110309893219036e-05, -9.073997322228462e-06, -1.4426934336992047e-05, -1.2840159059005525e-05, 4.455883759742727e-05, -2.4567970922119628e-06, 3.204428219226069e-05, 0.0009681282885504721, 0.009585902662499632, 0.07648287734586408, 0.11221274920701724, 0.1041059530117936, -0.02732053591676776, -0.02961969712047108, 0.05032616469469602, 0.12926267075231726, 0.13993531012133292, 0.10083865922024164, 0.0761705736492213, 0.11447499169203228, 0.02591400511921704, 0.07093437867749902, 0.010895692325306707, 0.10820946534030669, 0.09238044016027885, -0.048455617391733145, -0.028223049405418123, -0.015796812533535893, -0.06506442190245425, -0.049549557367001736, -0.07466390626654007, 0.014845520550344597, 0.00035752739758072275, 2.418775470843797e-06, 2.0995157327369294e-05, -1.1475659792161913e-05, -2.1748089148702623e-05, 4.654101768070432e-06, 0.0008500887810025338, 0.005929574994209758, 0.021589897796478328, 0.0671549178495508, 0.10842011313468394, 0.05048458297842585, -0.0403438738868193, 0.0054846731911308445, -0.02039452397675891, 0.06192768698733149, 0.19846078946766513, 0.09567645091660604, 0.19581980111769418, 0.11932559671093086, 0.06735158301703656, -0.007166249161084551, 0.05899573743505537, 0.03776813003901362, 0.013254108971637991, -0.09199668661075118, -0.044246361823494285, -0.1499950150248525, -0.10403675651761457, -0.1231259846382834, -0.06085408469776346, 0.006331109116794764, 0.004586846559443576, 1.0645471313508661e-05, 1.7083343855175157e-06, -1.4256965234577027e-05, 5.194647914865076e-06, 9.615011562389032e-06, 0.00066325931824086, 0.009188594389681459, 0.03323343914099408, 0.06051844578083248, 0.06472865137892253, 0.039790876884600944, -0.01140840750809025, 0.010498043272814781, 0.04996316701797096, 0.09783637755413303, 0.1858070535755468, 0.19295588966234767, 0.1702696785285766, 0.17022443061236078, 0.08741903070660977, -0.001515390059328742, 0.032447903127199, -0.021381482519652155, -0.05544766192093664, -0.07965880552648291, -0.10020930051182832, -0.12824047111652148, -0.09212356272219838, -0.11466306641534649, -0.02780290469914064, -0.02086220929270003, -0.013503021054490081, 4.1442055934569694e-05, 2.625269403348596e-05, 7.24141639056139e-06, -3.7283678067058064e-06, -1.520250058838199e-05, 0.0015307335854686855, 0.01497730793671222, 0.03156291565713151, 0.06332250600240998, 0.06581882474177192, 0.00881245541280651, 0.05941356602394366, 0.04509346807649559, 0.07985810872323401, 0.04802934903790016, 0.13856014633631655, 0.23742415102566844, 0.2022752608512907, 0.13527252735711484, 0.04547405721991895, -0.029281347172231537, -0.05134020129436176, -0.05372081292240773, -0.04928903834396651, -0.10948231974791103, -0.12978808988289095, -0.08077230430355427, -0.06391431423396846, -0.0967592344648707, -0.03492453706585884, -0.0232288086064463, 0.015751885451046613, 0.0042956652036147255, -8.587895337512139e-06, 7.315779266479062e-06, 1.3441808067156302e-05, 1.5652804851385715e-05, 0.0012818094226389912, 0.013720394643470975, 0.027787265387112025, 0.08234276416530545, 0.09136744571244473, 0.046791417009932085, -0.0029046142194735676, 0.009308095393248356, 0.10938179870163754, 0.07817274623008177, 0.18693111786596026, 0.1821454258207787, 0.134540762890036, 0.11181854614985776, 0.08485761745247741, -0.03228840168664844, 0.02708222327020813, -0.024415787863294628, -0.05094349007151133, -0.16583633952812704, -0.09824030903409461, -0.09336705999725178, 0.010648428517394398, 0.022685704637000405, 0.014285528412114204, 0.032460307930412644, 0.013947678720469286, 0.004718513041545556, 5.9570036428116505e-05, -1.1996595432478432e-05, -1.4240988593395982e-05, 0.000559301333042876, 0.0005663113369073391, 0.002686594335559837, 0.02444344847088424, 0.036467739968545146, 0.0961993115444927, 0.022861051079554863, -0.03675917268040025, 0.0007622032794546768, 0.010829195140687593, 0.0689227584016583, 0.16839326416319067, 0.16716362607053145, 0.09532138771020593, 0.0882501008861661, 0.03919780053419196, 0.023071350384275345, -0.05183391237771613, -0.04989540569877777, -0.06036382916769274, -0.02048672897793482, -0.1006229325883544, -0.06505433913038411, -0.030683621915866526, -0.0017590996503644538, 0.017159367638460817, 0.05800169511819525, 0.01787884429239192, -0.0022897754600049772, 4.6857984603181886e-05, 7.005131997225567e-06, 2.2408343395941372e-06, 0.0005799754835449514, 0.0006219984128900661, 0.0005615540795856262, 0.006940055809901512, 0.03095488938549645, 0.09458135238639913, 0.07392293067070485, 0.02416179099422215, 0.0573048649312876, -0.021999427083451775, 0.050049603922315916, 0.0785306505400757, 0.10170114707659467, 0.08250795202874679, 0.08421922177050506, -0.023748555682796657, 0.025403608938805073, 0.02085198586371316, -0.001103985594448479, 0.010196955551565941, -0.02926042606482315, -0.06934336107460129, 0.03134877810361832, 0.11089849002427035, 0.12101148608734912, 0.03850675427636081, 0.034248457107665366, 0.014436584365863701, -0.015627647158843874, -0.00848084360724212, 1.9591045011907054e-06, 2.5440050423588977e-05, -3.660933009109634e-05, 0.0005672809822748724, 0.015544112772953209, 0.015523955150158916, 0.021586920880312433, 0.080662812526781, 0.08960070424281986, 0.06744848239230995, 0.04575985954994463, -0.01703093990032613, -0.08283376818492161, 0.0023699163300849244, 0.039046674723725784, -0.034994653431005086, -0.03918641168421656, -0.06826045031375852, -0.021595509697264377, -0.02852944073742605, -0.008634500908384933, 0.005178557950919934, -0.04476796443084419, -0.0011863790192859639, 0.06341991169050769, 0.13363931388702896, 0.13214271002100464, 0.0577595992660759, 0.0020426217968886845, 0.039890560902182653, -0.029595985573238053, -0.021591906326465845, 8.31204735528718e-06, -4.599701530486753e-06, 6.537997860241614e-06, -1.6131885413125933e-05, 9.664329306473614e-06, 0.014967385285328979, 0.016967524564211887, 0.035338135083452425, 0.042686012111157634, 0.09161715613226218, -0.006756623997460491, -0.004368575842823413, -0.1012505192946451, -0.08156542804093266, 0.026809230173153526, -0.045553265940736526, -0.05998825791242878, -0.06555920792454603, -0.07219197439352337, -0.04067459374613673, 0.03829523564648509, 0.02624752090065032, 0.037034076525847684, 0.050398233393308865, 0.09267132905803713, 0.08219110244844802, 0.1601171793096117, 0.10875887532211106, 0.07328921068308009, 0.04106361938541336, 0.022861691636263257, -0.04119960859689841, -0.005457741589634443, -1.9630660768749317e-06, -2.839701917670758e-05, 2.0858737649089627e-05, 3.1201516164183655e-05, -1.933040578971406e-05, -0.006916697677131809, 0.01988357253698635, 0.004083387137860363, 0.056152238938243844, -0.02329441359050184, 0.021306103798507944, -0.07083444683863051, -0.11538765214068018, -0.1643298509106425, -0.13662812272703995, -0.1274995012324062, -0.07387425772650628, -0.062378164600909634, -0.04182341755743406, -0.024275007910276435, -0.025144861966202744, 0.06822908260147961, 0.12539571261075577, 0.06400410091456821, 0.1257329175966821, 0.11618408611276106, 0.12181226879227922, 0.09423054691868454, 0.03926576636412423, 0.026390294838611775, -0.04013903200016672, -0.008987273886429335, -4.656504223003541e-06, 2.004246459068867e-05, 9.018174171884396e-06, -3.329340541711604e-05, 1.3156943554949695e-05, -0.006890747783718202, 0.004273721297360422, 0.03646839984072663, 0.0727321165996278, -0.008595740631202178, 0.09857824369016681, 0.10605060945973237, -0.009910335860800734, -0.05858984064007518, -0.1222378310137204, -0.16603573334093386, -0.10250182490489643, -0.0736083122045996, -0.0392519538650115, 0.02177227700858826, -0.01746667039844084, -0.03725508067739406, 0.025399181271275995, 0.09350549408807327, 0.04019735330675181, 0.024937807639604088, 0.033900154223480757, 0.03355519044734291, 0.011723457101618222, 0.025083066641349527, -0.018877753576852875, -0.009054421320940847, 9.29329364363017e-06, -3.932368660883502e-06, 2.056971566597023e-05, -1.9249601084239235e-05, -1.835718262666609e-05, -1.138049142229563e-05, -0.01779892727925127, 0.018248953023472778, 0.09364802874424268, 0.1086886596919585, 0.06432263952559418, 0.1379092816953333, 0.09040177338472065, 0.007870992927944093, -0.04601296795650495, -0.01960561791347448, 0.001049691293740651, 0.037389230495768255, -0.003727333361148492, 0.012081191524995299, -0.01200667170897688, 0.001695503004273509, 0.030343009044509, -0.004067754826609848, 0.02486660244793847, 0.0407535375254607, 0.0021580812752498278, -0.0150928796376412, -0.009449632259184137, -0.0017105563204363014, -0.013261291466530439, -0.005007948802718807], [-1.3631290890830524e-05, 1.4541545693479917e-05, 2.6248589070611948e-05, 2.741039734977329e-05, 1.8635225778236318e-06, -3.182771811718995e-05, -6.013053003597952e-06, -0.0003727426178755243, -0.024549231115619793, -0.05799522997931692, -0.02615983068570149, -0.06431709349006658, -0.0357006813090425, -0.01655645797657662, -0.043887924775750355, 0.02707520446895958, -0.03770389057254773, -0.014502080526440546, -0.06428484948775365, 0.015009335826362344, -0.09212060381596236, -0.08906527053143609, -0.10706916254091971, -0.11325997307547267, -0.10609983404853389, -0.04356523480966707, -0.03734247076922649, -0.007550039984878975, -0.002792870688406578, -0.005205191747527129, -0.002286284734959083, 0.0031710197210089133, 9.139882600855833e-06, 6.89530135420435e-06, 1.5454648024859042e-05, -5.336914812099358e-06, -7.46568404909583e-08, -2.987175090055947e-06, -0.000842833791655661, -0.005154266489404969, -0.042479951848484764, -0.049702220063765894, -0.03690555682838793, -0.09591232431399738, -0.0773201419870919, -0.005826389353520086, 0.008632535594605053, -0.001672077415044432, -0.0024443859230122407, 0.005495823922646477, -0.06473499155927712, -0.12410913892006377, -0.08526960046106535, -0.12097291785739747, -0.13493500456216137, -0.1491182033993145, -0.1228324420140694, -0.07105823160761181, -0.08361367953442657, -0.028296668879714798, -0.01493146425772147, -0.0015022347170148332, -0.0011980784023603048, 0.0031555737404088562, -7.958158802145386e-06, -2.447907199766513e-05, 2.97065807571761e-06, 2.4585632374083873e-05, 1.5955535961357444e-05, -8.121222357835422e-05, -0.01330402769990488, 0.005635333214933766, -0.04351792416799645, 0.015841260516112978, -0.037172272107727354, -0.0967268637458381, -0.0562146525739494, -0.03415997921241811, -0.023904435634135992, -0.04764975198590794, -0.07651661016283783, -0.06799923191694895, -0.10032902393741093, -0.07147230692207315, -0.08660590490578576, -0.07153731973619541, -0.11803646454446946, -0.07973380546142048, -0.11488158265838765, -0.07018006703075619, -0.04671228681550655, -0.0404047054488116, -0.004952179523940185, 0.002049946837459074, -0.0014810664353783675, -0.0007142974990499044, 1.7669954954756022e-05, -2.4701731269040238e-05, -1.6224065042946414e-05, 1.4129223832415613e-05, -8.830721435375058e-06, 0.0009904966527273104, -0.002592390493514955, -0.09030661959465976, -0.008720534178713527, -0.015569464888882133, -0.08673740622060773, -0.10253592224218716, -0.08450063479000025, -0.0675917117817398, -0.07770424149763845, -0.060756728039901925, -0.09013070305909993, -0.10466187712130233, -0.12960116360923554, -0.07662783275446398, -0.10255213083111375, -0.08691894002654854, -0.0688760627094972, -0.04508376789408069, -0.13028055361774837, -0.05448860753852231, -0.00920081733943771, 0.013353510865033977, 0.00843383542382697, -0.0005873501210063134, 0.0011818706304146927, 0.0016674268131384186, 9.272564184449185e-06, 6.219979591765768e-06, 4.453633913930925e-06, 7.668206483910935e-07, -0.00036144684800835356, -0.013215174040710879, -0.07238734703040818, -0.06583043388280821, -0.0007902563175528146, -0.11569769174776684, -0.14817034530422793, -0.13695824378259291, -0.10275323315635083, -0.10789995155129287, -0.09872545963055815, -0.10070557876697121, -0.10916680042234023, -0.09360535334828356, -0.1276076873708981, -0.11514985362823664, -0.17494623873325138, -0.1365616531217854, -0.09946012904760153, -0.009901583263764205, -0.07886903130497475, -0.07940247358475346, 0.007884756300207872, -0.0039972335042396615, 0.016995025608269203, 0.004491910819888899, 0.009784852479066927, -0.003116639197186638, 3.934885819504004e-05, 1.38443025404681e-05, 1.781528732380481e-06, -2.731889759172752e-05, -0.007573030884221289, -0.027022362232887013, -0.10216629853073414, 0.012108947537179001, -0.07283735306313413, -0.07996939366349201, -0.1849437990544295, -0.0932104116090278, -0.05777769672071573, -0.14885410837759652, -0.10136861544221178, -0.15092528150802392, -0.1292988022825449, -0.15749348766924803, -0.07894783008759698, -0.07226306991365658, -0.0999271770003643, -0.08540588348824045, -0.029751850140621514, -0.034784379659926506, -0.06511308255363449, 0.0166285384365721, -0.014632448228733646, -0.010176257295152853, 0.009205188363895613, -0.013602076359608925, -0.01330281209181163, 0.0031615315574031835, 1.5132548714869112e-05, -9.17468258754986e-06, 1.7638186308617844e-06, 8.957002384810866e-06, -0.0069518991916180575, -0.05574993589874629, -0.051189353990208866, 0.038806428186988436, -0.025916157595366297, -0.0691679972715596, -0.08038111347014333, 0.008896448246948062, -0.0035413527114717797, -0.03925685812102003, -0.061651442620289224, -0.11151837278741025, -0.14239065736982068, -0.15294296711377534, -0.152856739544512, -0.07436236290406603, -0.10544411826822699, -0.05915568137088665, 0.0038275711579439375, -0.03771528947824826, 0.00926443888423667, -0.02165181353193288, 0.03922088609893326, -0.013770039656691761, 0.01617925705522915, -0.015535353631060246, -0.002475991363261029, 0.0031531423446182977, -4.555940575527796e-05, -1.7438892339752415e-05, -9.315760405690566e-06, 1.3287500732594676e-05, -0.0011402269038837984, -0.08289967102025352, -0.030157727724775298, 0.0031690192088217155, 0.006157797139658457, -0.002531349023201918, 0.011672149218424504, 0.02931206480667336, -0.06048072436407552, -0.04169349124959117, -0.02756397991644695, -0.01582173762179627, -0.07237481775152843, -0.01857336496286761, 0.021740438361225193, -0.06732007061344293, -0.06286236135543118, -0.005718823776707201, 0.017676911845657693, 0.03723176748492024, 0.06737507229443607, 0.039097337242734294, 0.05044636699974847, 0.01627427043834368, -0.004801113611497254, -0.010615422409557831, 0.0033574748688527723, 1.0201101975234215e-05, 7.204020026280705e-06, -8.501774875552282e-06, -8.41667773721638e-06, 0.0077181019990772565, -0.029349800351203974, -0.053210044198820076, -0.09137015707161066, -0.04970936617367745, -0.0012964945961289808, 0.06590922851963743, -0.003179270761151157, 0.01974497646263961, 0.0479446536746754, 0.02155540828073927, 0.04728485837845507, 0.013576965479568503, -0.002623711062669205, 0.0039108000092797955, 0.02388217035477817, -0.08524680424469565, -0.0027887647871711156, -0.0019545592256278938, 0.009720827282116129, 0.050684016184411616, -0.0028073135533533827, 0.023809720627557606, 0.05477508384365777, 0.0007958689533336501, -0.005493119097416577, -0.005383239136672844, 0.0001267635831235398, 2.6047580073885786e-05, 1.2017469997710684e-05, 2.245348188038442e-05, 8.934074653571747e-06, 0.011839702495108793, -0.037544055972465636, -0.01991183489445864, -0.06884048764573328, -0.09856901531073502, 0.07903628965667629, 0.05561816386435723, 0.012536969393893118, 0.06059827547594606, 0.06346059579938773, 0.07766542906699422, 0.04536602576894603, 0.055426826755490675, -0.004693471332280156, -0.01075880442338063, -0.01481981493884176, -0.058452447645948924, 0.06353015203467913, -0.00023489617816003486, 0.04950799889434628, 0.016950436159368934, -0.00877104815465663, 0.00801767859667333, 0.00699280121069095, 0.019506721200608954, 0.000145346878171632, 0.0032489760422403278, -3.6686639441431166e-06, -5.663846887528273e-06, -9.846323560102948e-06, -1.795616240093932e-05, 0.007712074011586347, 0.008297030387148857, -0.01475568561784581, 0.033281613912203016, -0.033713424091460664, 0.10016168875407472, 0.10934093154459598, 0.017271123733469503, 0.005021327842892826, 0.10530378691727525, 0.02222275526498355, 0.03544263918356895, 0.10289256363558874, 0.08752340687342046, 0.008418552295408773, 0.005905094128787768, -0.04557251355433052, -0.007132320130774471, 0.05511855896723304, 0.014020581642301907, 0.004961126150879856, -0.006766603231917241, -0.0143673320526648, -0.10387358609722329, -0.02134733218904892, 0.01575660374656115, 0.0013813697727747003, 0.007129525433712091, 9.76778889363428e-06, -6.7968013632255e-06, -6.337079712705745e-06, 1.290885427057124e-05, -6.727663488788824e-06, 